SVM-light Version V6.02
2 # kernel type
3 # kernel parameter -d 
1 # kernel parameter -g 
1 # kernel parameter -s 
1 # kernel parameter -r 
empty# kernel parameter -u 
8 # highest feature index 
21576 # number of training documents 
9665 # number of support vectors plus 1 
-2.9571002 # threshold b, each following line is a SV (starting with alpha*y)
-5 1:8.9023473e-05 2:0.01835536 3:0.0086445371 4:0.1970803 5:0.63541669 6:0.79466152 7:0.0625 8:0.84276283 # 1c8nC00 1xe7A00
-5 1:0.0019358598 2:0.026431719 3:0.013139696 4:0.16788322 5:0.52083331 6:0.86460847 7:0.083333336 8:0.79939318 # 1ej6A04 2xvyA02
-5 1:0.0047483193 2:0.030102789 3:0.01175657 4:0.10948905 5:0.4375 6:0.86380446 7:0.020833334 8:0.81733 # 1ohgA02 2i1sA00
5 1:0.0080080284 2:0.034508076 3:0.021784233 4:0.18832117 5:0.47916666 6:0.80559576 7:0.0625 8:0.78511512 # 1a7jA00 1gkuB03
5 1:0.0047850711 2:0.029735683 3:0.01417704 4:0.07883212 5:0.58333331 6:0.91622448 7:0.125 8:0.89871496 # 1zbsA02 2nrhB01
-5 1:0.0026528954 2:0.026798826 3:0.0072614108 4:0.12262774 5:0.5625 6:0.90448624 7:0.13541667 8:0.82491523 # 1ehxA00 1f0lA03
-5 1:0.16096231 2:0.21255507 3:0.19536653 4:0.270073 5:0.75 6:0.93921852 7:0.13541667 8:0.95243621 # 1a5aA00 1vizA00
-5 1:0.022166958 2:0.04955947 3:0.038035963 4:0.53138685 5:0.72916669 6:0.93069625 7:0.09375 8:0.95680887 # 1ccwB01 1xrsA00
5 1:0.003778067 2:0.028267253 3:0.015560166 4:0.19562043 5:0.78125 6:0.90914941 7:0.0625 8:0.90442622 # 1j83A00 3lqcA00
5 1:0.0024863854 2:0.027165933 3:0.011065007 4:0.15766424 5:0.86458331 6:0.87296993 7:0.041666668 8:0.93075138 # 1jogA00 1o3uA00
5 1:0.0016069969 2:0.02606461 3:0.012448133 4:0.12262774 5:0.94791669 6:0.76218039 7:0.03125 8:0.84338748 # 2p7jA03 3fosA01
5 1:0.0069576255 2:0.032305434 3:0.016943293 4:0.16934307 5:0.45833334 6:0.84483033 7:0.09375 8:0.84624308 # 1g8fA03 1p9rA02
-5 1:0.0072226091 2:0.033039648 3:0.021438451 4:0.22335766 5:0.85416669 6:0.93777132 7:0.09375 8:0.98295557 # 1jwqA00 1yqeA01
-5 1:0.012027782 2:0.039647575 3:0.029045643 4:0.28321168 5:0.86458331 6:0.92731953 7:0.10416666 8:0.98117077 # 1twdA00 1vhnA01
5 1:0.00086494564 2:0.023861967 3:0.0044951593 4:0.027737226 5:0.13541667 6:0.90400386 7:0.21875 8:0.41138676 # 1dleB02 1gpzA02
5 1:0.0043296367 2:0.029001469 3:0.0089903185 4:0.10510949 5:0.19791667 6:0.78340572 7:0.052083332 8:0.63483846 # 1hz4A00 2i6hA02
5 1:0.0060438178 2:0.030837005 3:0.016943293 4:0.2759124 5:0.625 6:0.57774562 7:0.041666668 8:0.82188112 # 1b89A00 1ouvA00
5 1:0.0040538418 2:0.030102789 3:0.013139696 4:0.10072993 5:0.45833334 6:0.78260171 7:0.041666668 8:0.78886312 # 1o7fA02 2l3dA00
5 1:0.00018239123 2:0.020558003 3:0.0027662518 4:0.027737226 5:0.13541667 6:0.81765556 7:0.052083332 8:0.28618598 # 1arbA02 1gpzA02
5 1:0.0024863854 2:0.026431719 3:0.005878285 4:0.027737226 5:0.17708333 6:0.88792408 7:0.052083332 8:0.28618598 # 1gpzA02 1k28D01
5 1:0.0017104631 2:0.025697503 3:0.0048409407 4:0.027737226 5:0.28125 6:0.89178324 7:0.052083332 8:0.58665001 # 1cqqA01 1gpzA02
-5 1:0.0034323002 2:0.028634362 3:0.01175657 4:0.17226277 5:0.79166669 6:0.93391222 7:0.072916664 8:0.95529181 # 1a9xB01 1nbwA03
-5 1:0.0018198448 2:0.02606461 3:0.01175657 4:0.18540145 5:0.86458331 6:0.88712013 7:0.125 8:0.94824201 # 1f0lA03 1jv2A03
5 1:0.0010818181 2:0.024963289 3:0.01417704 4:0.28321168 5:0.66666669 6:0.93214345 7:0.052083332 8:0.89675176 # 1ayeA02 1cg2A01
-5 1:0.0040180045 2:0.030102789 3:0.017289074 4:0.32262772 5:0.80208331 6:0.92201316 7:0.10416666 8:0.94074601 # 1xx1A00 2y7eB00
-5 1:0.00086494564 2:0.02349486 3:0.017289074 4:0.16204379 5:0.80208331 6:0.92346036 7:0.041666668 8:0.91906124 # 1fp4A02 1xmxA01
5 1:0.0048388289 2:0.030102789 3:0.014522822 4:0.16204379 5:0.60416669 6:0.92619389 7:0.072916664 8:0.90076745 # 1g8fA03 2g0tA02
5 1:0.0088567222 2:0.036343612 3:0.020746889 4:0.21605839 5:0.4375 6:0.89001447 7:0.072916664 8:0.81929326 # 1f7uA01 1jhdA01
5 1:4.399411e-05 2:0.017621145 3:0.014868603 4:0.16058394 5:0.70833331 6:0.92619389 7:0.11458334 8:0.92200607 # 2g0tA01 2ph5A01
5 1:0.0091443108 2:0.034875184 3:0.024550484 4:0.30656934 5:0.64583331 6:0.84193599 7:0.052083332 8:0.84740317 # 1b30A00 1hl8A01
5 1:0.00086494564 2:0.023861967 3:0.0044951593 4:0.027737226 5:0.22916667 6:0.90271747 7:0.052083332 8:0.28618598 # 1befA02 1gpzA02
-5 1:0.010139176 2:0.036710721 3:0.024896266 4:0.32700729 5:0.83333331 6:0.90352148 7:0.125 8:0.96698195 # 1ad1A00 2y7eB00
5 1:0.00049339712 2:0.02239354 3:0.011410789 4:0.1649635 5:0.76041669 6:0.89725035 7:0.0625 8:0.91665179 # 1vprA03 2o62A01
-5 1:0.0088127283 2:0.034875184 3:0.021438451 4:0.29781023 5:0.89583331 6:0.92748028 7:0.09375 8:0.98009998 # 1a3wA02 1x7fA01
5 1:0.00055052555 2:0.023127753 3:0.0027662518 4:0.027737226 5:0.15625 6:0.85142308 7:0.10416666 8:0.28618598 # 1a0jA01 1gpzA02
-5 1:0.0038449962 2:0.027900146 3:0.0048409407 4:0.024817519 5:0.35416666 6:0.86766362 7:0.10416666 8:0.28618598 # 1aym400 1vq8L01
5 1:0.00033158308 2:0.022026431 3:0.012448133 4:0.15036497 5:0.77083331 6:0.92892748 7:0.072916664 8:0.92593253 # 1a4iB01 2g0tA01
-5 1:0.00018239123 2:0.02092511 3:0.0093361 4:0.15182482 5:0.89583331 6:0.88390416 7:0.052083332 8:0.99437803 # 1gyvA00 1jzdC00
5 1:0.0017104631 2:0.02606461 3:0.017980637 4:0.24963504 5:0.625 6:0.92426437 7:0.052083332 8:0.87943959 # 1eamA00 1m6eX02
-5 1:0.00038401541 2:0.022026431 3:0.010719226 4:0.094890513 5:0.89583331 6:0.92538995 7:0.020833334 8:0.96171695 # 1pveA00 2f48A03
5 1:0.011959021 2:0.034140971 3:0.014522822 4:0.017518248 5:0.26041666 6:0.32175592 7:0.041666668 8:0.58299124 # 1g3jB00 1i7wB00
5 1:0.0040502278 2:0.029001469 3:0.012448133 4:0.15474452 5:0.72916669 6:0.88953209 7:0.09375 8:0.9084419 # 3cihA02 3lqcA00
5 1:0.00013513799 2:0.020190896 3:0.0055325036 4:0.089051098 5:0.66666669 6:0.96044379 7:0.072916664 8:0.968499 # 1dfuP00 1qtqA02
5 1:0.001508839 2:0.025697503 3:0.01175657 4:0.21751826 5:0.69791669 6:0.91220456 7:0.072916664 8:0.90085667 # 1byiA00 3l2oB02
-5 1:0.0065438477 2:0.029001469 3:0.0044951593 4:0.055474453 5:0.95833331 6:0.85930216 7:0.10416666 8:0.91567016 # 1k7tA01 1nxuA03
5 1:0.0040180045 2:0.029368576 3:0.015560166 4:0.19124088 5:0.55208331 6:0.93053544 7:0.083333336 8:0.88916653 # 1gr0A01 2rirA01
5 1:0.00055052555 2:0.022760646 3:0.015905948 4:0.090510949 5:0.21875 6:0.82473063 7:0.020833334 8:0.65804034 # 1f2uA00 1s1mA01
-5 1:0.0046970118 2:0.030102789 3:0.014868603 4:0.15036497 5:0.86458331 6:0.93600255 7:0.072916664 8:0.99232554 # 1a04A01 1eiwA00
5 1:0.0002308409 2:0.02092511 3:0.0096818814 4:0.15474452 5:0.35416666 6:0.7041325 7:0.0625 8:0.72380865 # 1h4vB01 1yb3A00
5 1:0.0098945461 2:0.035609398 3:0.022130014 4:0.18832117 5:0.46875 6:0.89387363 7:0.083333336 8:0.85686237 # 1j8mF02 1nstA00
-5 1:0.014016884 2:0.039647575 3:0.024204703 4:0.2 5:0.875 6:0.79224956 7:0.10416666 8:0.91192216 # 1j3lA00 1xf1A02
-5 1:0.0054653548 2:0.031204112 3:0.017980637 4:0.16934307 5:0.34375 6:0.8039878 7:0.052083332 8:0.79109406 # 1a04A01 1f7uA01
-5 1:0.0047957026 2:0.029735683 3:0.01417704 4:0.1810219 5:0.48958334 6:0.82360506 7:0.03125 8:0.78823847 # 16pkA02 1e69A00
-5 1:0.0064278329 2:0.031938326 3:0.015905948 4:0.13284671 5:0.48958334 6:0.80736452 7:0.11458334 8:0.8201856 # 1ks2A01 1l9gA00
-5 1:0.0035398374 2:0.027900146 3:0.010027663 4:0.16204379 5:0.82291669 6:0.72793055 7:0.0625 8:0.86989111 # 1d5rA02 3fbqA02
5 1:0.001508839 2:0.024963289 3:0.0082987556 4:0.064233579 5:0.26041666 6:0.80318379 7:0.03125 8:0.64858109 # 1b5fB00 1t6eX01
5 1:0.0016069969 2:0.025697503 3:0.014522822 4:0.12262774 5:0.21875 6:0.90577263 7:0.083333336 8:0.67437088 # 1dkqA02 1qwoA01
5 1:0.0012413822 2:0.024596183 3:0.0065698479 4:0.05839416 5:0.19791667 6:0.87875867 7:0.083333336 8:0.73826522 # 1a76A02 1aroP05
-5 1:0.00086494564 2:0.024229076 3:0.0089903185 4:0.13138686 5:0.82291669 6:0.80141503 7:0.052083332 8:0.87943959 # 1xb4B01 2oceA01
5 1:0.0032694973 2:0.028634362 3:0.013485477 4:0.12846716 5:0.66666669 6:0.90866697 7:0.052083332 8:0.90826344 # 1a1vA02 1np6B01
-5 1:0.00086494564 2:0.023861967 3:0.0093361 4:0.16350365 5:0.89583331 6:0.90721983 7:0.072916664 8:0.96153843 # 1m0wA04 2xvyA02
5 1:0.0020593645 2:0.026431719 3:0.013139696 4:0.20437956 5:0.71875 6:0.89258724 7:0.072916664 8:0.86471534 # 2arhA01 2q04A00
5 1:0.0028352868 2:0.027900146 3:0.0093361 4:0.07737226 5:0.20833333 6:0.85029745 7:0.052083332 8:0.60860252 # 1aiqA00 1qzfA02
5 1:0.00073291681 2:0.02349486 3:0.0086445371 4:0.17226277 5:0.73958331 6:0.83019775 7:0.0625 8:0.87435305 # 1mx0A03 1n0uA06
-5 1:0.0016069969 2:0.025697503 3:0.01175657 4:0.4540146 5:0.82291669 6:0.8575334 7:0.052083332 8:0.88452613 # 1b9vA00 1h6lA00
-5 1:0.0068300008 2:0.032672539 3:0.0186722 4:0.29635036 5:0.83333331 6:0.93889695 7:0.14583333 8:0.95288241 # 1ojxE00 1vizA00
5 1:0.0023332108 2:0.026798826 3:0.0096818814 4:0.099270076 5:0.21875 6:0.44605243 7:0.083333336 8:0.76512581 # 1b89A00 2i6hA02
5 1:0.00086494564 2:0.023861967 3:0.0086445371 4:0.07883212 5:0.23958333 6:0.94790161 7:0.03125 8:0.78618598 # 2nrhB01 3h6eA03
5 1:0.0028352868 2:0.027533039 3:0.01625173 4:0.22919708 5:0.72916669 6:0.78710401 7:0.083333336 8:0.87676245 # 1d2tA00 1vnsA01
-5 1:0.050180469 2:0.077459618 3:0.060511757 4:0.54890513 5:0.83333331 6:0.79884225 7:0.09375 8:0.86239517 # 1e2rA02 1orvA01
-5 1:0.0023332108 2:0.027165933 3:0.011410789 4:0.1649635 5:0.54166669 6:0.74786943 7:0.052083332 8:0.82928789 # 1bgqA00 1k8kD01
5 1:0.0024863854 2:0.027165933 3:0.014868603 4:0.11094891 5:0.22916667 6:0.87731147 7:0.052083332 8:0.71898985 # 1df0A02 2aynA00
5 1:0.0014154712 2:0.025697503 3:0.005878285 4:0.12408759 5:0.23958333 6:0.76652193 7:0.09375 8:0.70381939 # 1w3bB00 2i6hA02
5 1:0.00086494564 2:0.024229076 3:0.013831259 4:0.23503649 5:0.6875 6:0.85930216 7:0.020833334 8:0.87042654 # 1bcoA01 1ytuA01
5 1:0.01275759 2:0.040014684 3:0.021438451 4:0.07737226 5:0.46875 6:0.86476928 7:0.041666668 8:0.77030164 # 1fznD00 1u3eM02
5 1:0.0012413822 2:0.024963289 3:0.01625173 4:0.15766424 5:0.36458334 6:0.91783243 7:0.072916664 8:0.8234874 # 1esmA00 1jqlB00
5 1:0.0024863854 2:0.026431719 3:0.0055325036 4:0.02919708 5:0.36458334 6:0.95851421 7:0.072916664 8:0.8492772 # 1csbA01 1hbwA00
-5 1:0.0075081508 2:0.033406753 3:0.01625173 4:0.14160584 5:0.46875 6:0.94918799 7:0.0625 8:0.91370696 # 1a9yA02 1gsaA01
5 1:0.0028661529 2:0.027165933 3:0.0082987556 4:0.049635038 5:0.23958333 6:0.8539958 7:0.041666668 8:0.70239156 # 1dleB02 1eptA00
5 1:0.0014154712 2:0.025330396 3:0.011065007 4:0.16204379 5:0.72916669 6:0.79707348 7:0.0625 8:0.87069428 # 1jb1A00 1z5zB01
-5 1:0.0010818181 2:0.024963289 3:0.014522822 4:0.54890513 5:0.85416669 6:0.62775367 7:0.03125 8:0.79707301 # 1a0cA00 1nthA00
5 1:0.00028054914 2:0.021659324 3:0.01175657 4:0.07883212 5:0.40625 6:0.89339119 7:0.020833334 8:0.81581295 # 1vq8B02 2gqfA02
-5 1:0.0040144571 2:0.029735683 3:0.015560166 4:0.18832117 5:0.41666666 6:0.82392669 7:0.041666668 8:0.76289487 # 1gnlA03 3kvnA01
5 1:0.0030995884 2:0.027900146 3:0.015214385 4:0.28905109 5:0.65625 6:0.92780191 7:0.052083332 8:0.88595396 # 1fcqA00 1jcjA00
-5 1:0.0021913934 2:0.026798826 3:0.014868603 4:0.35328466 5:0.89583331 6:0.66795307 7:0.041666668 8:0.78127789 # 1do8A01 1ei9A00
5 1:0.0023332108 2:0.027165933 3:0.0086445371 4:0.07883212 5:0.22916667 6:0.94516802 7:0.052083332 8:0.76708907 # 2cglA02 2nrhB01
5 1:0.004380445 2:0.029368576 3:0.014522822 4:0.12700731 5:0.73958331 6:0.93728894 7:0.072916664 8:0.94083524 # 1ef5A00 2jphA00
-5 1:0.0026528954 2:0.028634362 3:0.0186722 4:0.35036495 5:0.86458331 6:0.84466958 7:0.072916664 8:0.89925039 # 1f6kC00 3ijdA00
5 1:0.0023332108 2:0.02606461 3:0.0062240665 4:0.05109489 5:0.25 6:0.95915741 7:0.052083332 8:0.77949315 # 1nt2A01 2w1zA02
-5 1:0.044733807 2:0.062775329 3:0.057745505 4:0.067153282 5:0.22916667 6:0.87698984 7:0.0625 8:0.70953059 # 1av1C00 1gw3A00
5 1:0.012472386 2:0.037444934 3:0.026279392 4:0.24233577 5:0.19791667 6:0.94002253 7:0.072916664 8:0.75334644 # 1qbkB00 2bnxA01
5 1:0.0017104631 2:0.02606461 3:0.012793914 4:0.31094891 5:0.67708331 6:0.88535136 7:0.072916664 8:0.86783868 # 1amkA00 1tv8B00
-5 1:0.011766423 2:0.040014684 3:0.025587829 4:0.37810218 5:0.75 6:0.90078789 7:0.083333336 8:0.89594859 # 1tg7A01 3qxbA00
-5 1:0.0051520811 2:0.031571221 3:0.027316736 4:0.32408759 5:0.84375 6:0.91011417 7:0.072916664 8:0.90986973 # 1c3fA00 1i60A00
-5 1:0.00073291681 2:0.02349486 3:0.013831259 4:0.40145984 5:0.79166669 6:0.91895801 7:0.072916664 8:0.92994827 # 1v0fA02 2qe8A00
5 1:0.040591817 2:0.048091043 3:0.033540804 4:0.080291972 5:0.27083334 6:0.82826823 7:0.041666668 8:0.59173656 # 1ft5A00 1jniA00
5 1:0.0020593645 2:0.02606461 3:0.011065007 4:0.18540145 5:0.82291669 6:0.91493809 7:0.0625 8:0.92147064 # 1ciyA03 1cztA00
-5 1:0.0032361739 2:0.028634362 3:0.012102352 4:0.23649634 5:0.625 6:0.78228009 7:0.072916664 8:0.78689986 # 1p9oA00 3gmiA02
5 1:0.0007977928 2:0.023861967 3:0.012102352 4:0.10948905 5:0.26041666 6:0.85190547 7:0.10416666 8:0.70810282 # 1w36B03 2zejA02
5 1:0.0018198448 2:0.025697503 3:0.011410789 4:0.099270076 5:0.23958333 6:0.82842898 7:0.125 8:0.70944136 # 1f0yA02 1qmgA02
5 1:0.0012413822 2:0.025330396 3:0.01175657 4:0.20583941 5:0.8125 6:0.77038109 7:0.072916664 8:0.91977513 # 1gkuB03 3b85A00
5 1:0.0016069969 2:0.025330396 3:0.011065007 4:0.15766424 5:0.71875 6:0.91670686 7:0.03125 8:0.88648939 # 1fp4A02 1k75A03
5 1:0.0040866793 2:0.029735683 3:0.01417704 4:0.16058394 5:0.58333331 6:0.92410356 7:0.14583333 8:0.86935568 # 1b3mA02 3c4nA02
-5 1:0.0019358598 2:0.02606461 3:0.0093361 4:0.16642335 5:0.625 6:0.69577104 7:0.0625 8:0.8479386 # 1v8dC00 2iqiG00
-5 1:0.0024863854 2:0.026798826 3:0.010027663 4:0.24963504 5:0.76041669 6:0.89725035 7:0.052083332 8:0.88559699 # 1h09A01 2agkA00
-5 1:0.0029173971 2:0.027900146 3:0.012793914 4:0.10656934 5:0.41666666 6:0.92860591 7:0.052083332 8:0.82803857 # 1jwqA00 1mkmB02
-5 1:0.0024863854 2:0.027165933 3:0.011410789 4:0.27153283 5:0.69791669 6:0.88390416 7:0.083333336 8:0.87122971 # 1a10E00 1zmbA01
-5 1:0.0016069969 2:0.025697503 3:0.0086445371 4:0.075912409 5:0.54166669 6:0.88583374 7:0.041666668 8:0.85802251 # 1a94A00 2gqfA02
5 1:0.00067016826 2:0.023127753 3:0.0096818814 4:0.12116788 5:0.25 6:0.77681297 7:0.083333336 8:0.72987688 # 1b8aA02 1yb3A00
-5 1:0.020278351 2:0.04441997 3:0.024896266 4:0.17226277 5:0.27083334 6:0.89741117 7:0.083333336 8:0.83169729 # 1g3jC00 1n4kA02
5 1:0.00043792487 2:0.02239354 3:0.010027663 4:0.18832117 5:0.72916669 6:0.9015919 7:0.052083332 8:0.88470465 # 1nkgA03 1umhA00
-5 1:0.0020593645 2:0.026798826 3:0.0096818814 4:0.10656934 5:0.9375 6:0.83791608 7:0.072916664 8:0.87435305 # 1af7A01 2fh0A00
-5 1:0.0043422128 2:0.030469898 3:0.020055326 4:0.32116789 5:0.82291669 6:0.90995336 7:0.052083332 8:0.91406387 # 1i60A00 2y7eB00
-5 1:0.011828493 2:0.03928047 3:0.022475796 4:0.34890512 5:0.79166669 6:0.90175271 7:0.041666668 8:0.9154917 # 1bqcA00 1r30A00
-5 1:0.015154952 2:0.042217329 3:0.025587829 4:0.070072994 5:0.22916667 6:0.79996783 7:0.0625 8:0.74103159 # 1ntcA00 2oflA00
-5 1:0.00033158308 2:0.02239354 3:0.0055325036 4:0.45839417 5:0.73958331 6:0.9128477 7:0.083333336 8:0.90549707 # 1jv2A01 1sqjB01
5 1:0.00073291681 2:0.02349486 3:0.016943293 4:0.34890512 5:0.82291669 6:0.66843545 7:0.072916664 8:0.73933607 # 1gvnD00 1w36B03
5 1:0.0033255345 2:0.028267253 3:0.0072614108 4:0.043795619 5:0.27083334 6:0.85946292 7:0.052083332 8:0.71033376 # 1aa0A00 1pgd003
5 1:0.0014154712 2:0.025330396 3:0.017980637 4:0.099270076 5:0.29166666 6:0.73404086 7:0.041666668 8:0.6930216 # 1f2uA00 1texA00
-5 1:0.004367616 2:0.028634362 3:0.0082987556 4:0.15912409 5:0.69791669 6:0.87425631 7:0.041666668 8:0.86239517 # 1jv2A02 1txkA02
-5 1:0.00073291681 2:0.023861967 3:0.0082987556 4:0.10364964 5:0.78125 6:0.83888084 7:0.041666668 8:0.88167053 # 1bqnA03 1in0A02
-5 1:0.0042842189 2:0.029735683 3:0.016597511 4:0.39270073 5:0.8125 6:0.82280111 7:0.052083332 8:0.87890416 # 1a5cA00 1qnrA00
-5 1:0.001508839 2:0.026431719 3:0.013831259 4:0.30072993 5:0.72916669 6:0.92217398 7:0.052083332 8:0.8956809 # 1jz7A03 1vpqA00
5 1:0.00086494564 2:0.023861967 3:0.0086445371 4:0.28613138 5:0.875 6:0.88712013 7:0.072916664 8:0.90638942 # 1jhnA01 2a5zA00
5 1:0.027303129 2:0.057268724 3:0.045643155 4:0.15620437 5:0.39583334 6:0.76282358 7:0.010416667 8:0.73960376 # 1a7jA00 1w36D02
-5 1:0.0040251184 2:0.030102789 3:0.02109267 4:0.4510949 5:0.89583331 6:0.68467599 7:0.052083332 8:0.89380687 # 1dosA00 1k87A03
-5 1:0.0039828257 2:0.030102789 3:0.016597511 4:0.34452555 5:0.8125 6:0.91911882 7:0.0625 8:0.90496165 # 1bqcA00 3ijdA00
-5 1:0.0021913934 2:0.027165933 3:0.015560166 4:0.35036495 5:0.82291669 6:0.87039715 7:0.09375 8:0.89291453 # 1a80A00 1bqcA00
-5 1:0.0010067631 2:0.024963289 3:0.011065007 4:0.26131386 5:0.5625 6:0.73789996 7:0.072916664 8:0.7733357 # 1ay0A01 1k75A01
5 1:0.00018239123 2:0.020190896 3:0.01175657 4:0.21897811 5:0.69791669 6:0.81202763 7:0.041666668 8:0.91058362 # 1iirA01 1xv5A02
5 1:4.399411e-05 2:0.01578561 3:0.0082987556 4:0.12846716 5:0.30208334 6:0.77616978 7:0.03125 8:0.69873279 # 1w36B03 2qgnA01
5 1:0.016172787 2:0.043685757 3:0.029045643 4:0.11386862 5:0.28125 6:0.83968484 7:0.010416667 8:0.67026591 # 1f2uA00 1nstA00
-5 1:0.00013513799 2:0.02092511 3:0.010719226 4:0.1970803 5:0.89583331 6:0.92120922 7:0.020833334 8:0.94618952 # 1pzdA01 3fbqA01
5 1:0.00067016826 2:0.023127753 3:0.014522822 4:0.27737227 5:0.66666669 6:0.81797719 7:0.052083332 8:0.84561843 # 1ar7200 1ohfA02
5 1:0.0029496278 2:0.027165933 3:0.013485477 4:0.1781022 5:0.70833331 6:0.89146167 7:0.041666668 8:0.90157056 # 1j83A00 1tg7A04
5 1:0.0062949704 2:0.033773862 3:0.021438451 4:0.32846716 5:0.8125 6:0.71394116 7:0.041666668 8:0.79341424 # 1booA00 1eamA00
-5 1:0.0096105207 2:0.036710721 3:0.023858922 4:0.13722628 5:0.22916667 6:0.84692073 7:0.041666668 8:0.70792431 # 1ig0A01 1jv1B01
5 1:0.0024863854 2:0.027533039 3:0.015214385 4:0.072992697 5:0.92708331 6:0.85881972 7:0.03125 8:0.8459754 # 1bl0A01 1ef4A00
5 1:0.0053911726 2:0.030837005 3:0.012793914 4:0.16350365 5:0.67708331 6:0.8367905 7:0.052083332 8:0.83999646 # 2gc9A00 2xklA00
5 1:0.0028955492 2:0.028634362 3:0.020401107 4:0.2759124 5:0.78125 6:0.82328349 7:0.0625 8:0.89639479 # 1ny1A00 1v6tA00
5 1:0.0032011028 2:0.027900146 3:0.0086445371 4:0.099270076 5:0.91666669 6:0.80157584 7:0.020833334 8:0.9046939 # 2b2tA02 2hdlA00
5 1:0.0018198448 2:0.02606461 3:0.0093361 4:0.2 5:0.89583331 6:0.72149861 7:0.083333336 8:0.85668391 # 1f2uB00 1htwA00
-5 1:0.00038401541 2:0.022760646 3:0.0072614108 4:0.11824817 5:0.91666669 6:0.79948545 7:0.0625 8:0.88024271 # 1c3cA01 1o5wB03
-5 1:0.0010818181 2:0.024596183 3:0.01175657 4:0.10656934 5:0.22916667 6:0.93937933 7:0.072916664 8:0.77877921 # 1a4iA02 1p5hA01
-5 1:0.0050642258 2:0.030102789 3:0.015214385 4:0.099270076 5:0.21875 6:0.92603314 7:0.125 8:0.76575047 # 1g7rA03 2pmbA02
-5 1:0.005015776 2:0.030469898 3:0.01625173 4:0.28321168 5:0.85416669 6:0.84981507 7:0.072916664 8:0.91647333 # 1a3wA02 1m65A00
5 1:0.00067016826 2:0.02349486 3:0.0044951593 4:0.05109489 5:0.25 6:0.94934875 7:0.17708333 8:0.78975546 # 1ia9A01 1nt2A01
5 1:0.0012413822 2:0.025330396 3:0.0024204704 4:0.037956204 5:0.89583331 6:0.89869756 7:0 8:0.9324469 # 1a1gA01 2r1fA01
-5 1:0.0029154005 2:0.027900146 3:0.01625173 4:0.37080291 5:0.82291669 6:0.44685641 7:0.041666668 8:0.77440655 # 1qoyA00 1w9cA00
5 1:0.0039689336 2:0.029368576 3:0.010027663 4:0.07883212 5:0.25 6:0.95497668 7:0.052083332 8:0.80465823 # 1gleG02 2nrhB01
5 1:0.014727931 2:0.041483112 3:0.026279392 4:0.15620437 5:0.5 6:0.86718124 7:0.041666668 8:0.81554526 # 1byiA00 1pujA01
-5 1:0.0002308409 2:0.021659324 3:0.0062240665 4:0.12700731 5:0.5625 6:0.86042774 7:0.041666668 8:0.86391217 # 1aepA00 2hktA00
5 1:0.0010818181 2:0.024963289 3:0.014522822 4:0.07883212 5:0.27083334 6:0.9358418 7:0.10416666 8:0.78948778 # 1g99A02 2nrhB01
5 1:0.0034296878 2:0.028634362 3:0.01625173 4:0.080291972 5:0.21875 6:0.9358418 7:0.10416666 8:0.76262718 # 1bu6O01 2nrhB01
5 1:0.00060941203 2:0.023127753 3:0.013831259 4:0.32262772 5:0.80208331 6:0.57099211 7:0.0625 8:0.70426559 # 1b35A00 2tbvA00
-5 1:0.011465623 2:0.038546257 3:0.022475796 4:0.46715328 5:0.75 6:0.58192635 7:0.041666668 8:0.71274316 # 1c8jA00 1g3jC00
-5 1:0.0028352868 2:0.027533039 3:0.010373444 4:0.10072993 5:0.25 6:0.94790161 7:0.125 8:0.77690524 # 1b6sA01 1q74B00
-5 1:0.0002308409 2:0.021292217 3:0.0069156294 4:0.096350364 5:0.29166666 6:0.95578068 7:0.09375 8:0.82937711 # 1efdN01 1x38A02
5 1:0.0090932772 2:0.033773862 3:0.021438451 4:0.40145984 5:0.91666669 6:0.55105323 7:0.072916664 8:0.8492772 # 1b89A00 2c0lA00
-5 1:0.0012413822 2:0.025330396 3:0.012793914 4:0.11094891 5:0.375 6:0.88068819 7:0.041666668 8:0.80662143 # 1aozA02 1yi9A01
5 1:0.00055052555 2:0.022760646 3:0.0093361 4:0.28467155 5:0.625 6:0.91895801 7:0.052083332 8:0.88827413 # 1dypA00 1wd3A01
5 1:0.004686913 2:0.030102789 3:0.01625173 4:0.40583941 5:0.80208331 6:0.62775367 7:0.052083332 8:0.79591292 # 1ea0A02 1tv8B00
-5 1:0.0032267587 2:0.028267253 3:0.013139696 4:0.34598541 5:0.90625 6:0.64801413 7:0.072916664 8:0.75290024 # 1iuqA02 1kqpA00
5 1:0.0029233992 2:0.027165933 3:0.0076071923 4:0.05839416 5:0.29166666 6:0.94388163 7:0.020833334 8:0.79011244 # 1dleB02 2hrvA01
-5 1:0.033497445 2:0.059471365 3:0.047717843 4:0.045255475 5:0.33333334 6:0.90786302 7:0.041666668 8:0.78350884 # 1bpeA01 2i5hA02
5 1:0.0081564486 2:0.033773862 3:0.015560166 4:0.17226277 5:0.5625 6:0.83084095 7:0.083333336 8:0.9027307 # 1gleG02 1t6cA01
-5 1:0.0018198448 2:0.02606461 3:0.020055326 4:0.39854014 5:0.77083331 6:0.60894036 7:0.03125 8:0.82125646 # 1hxaA02 1oq4A00
5 1:8.9023473e-05 2:0.016886931 3:0.011410789 4:0.32408759 5:0.75 6:0.68065608 7:0.072916664 8:0.77779758 # 1e2jA00 1w36B03
-5 1:0.0043422128 2:0.029368576 3:0.01175657 4:0.043795619 5:0.27083334 6:0.87489951 7:0.19791667 8:0.78913081 # 1dw0A00 1iz3A02
5 1:0.011465623 2:0.037077826 3:0.022475796 4:0.34160584 5:0.84375 6:0.66682744 7:0.072916664 8:0.77110475 # 1m6nA01 1s1mA01
5 1:0.00067016826 2:0.02349486 3:0.0076071923 4:0.054014597 5:0.25 6:0.95947903 7:0.15625 8:0.79412812 # 1dikA01 2pbzA03
5 1:0.0089017516 2:0.033406753 3:0.022130014 4:0.13138686 5:0.53125 6:0.91638529 7:0.041666668 8:0.88488311 # 1pujA01 3l2oB02
-5 1:0.0030777429 2:0.028267253 3:0.018326418 4:0.48029196 5:0.72916669 6:0.60942274 7:0.052083332 8:0.68481171 # 1ahpA01 1ci9A00
5 1:0.0024863854 2:0.026798826 3:0.011410789 4:0.071532845 5:0.28125 6:0.87313074 7:0 8:0.73398179 # 2p0sA01 3thiA02
-5 1:0.0055984645 2:0.031571221 3:0.012793914 4:0.054014597 5:0.27083334 6:0.95561987 7:0 8:0.81902552 # 1fm0E00 1lujB01
-5 1:0.00038401541 2:0.022026431 3:0.0076071923 4:0.14744526 5:0.48958334 6:0.90496862 7:0.09375 8:0.82232732 # 1m6eX02 1pw5A02
5 1:0.00033158308 2:0.021659324 3:0.01417704 4:0.37372261 5:0.76041669 6:0.64737093 7:0.052083332 8:0.71916831 # 1ct9B02 1f7uA01
5 1:0.0030052795 2:0.027533039 3:0.019363763 4:0.35328466 5:0.80208331 6:0.64721018 7:0.052083332 8:0.78913081 # 1f8vC00 2tbvA00
5 1:0.0026528954 2:0.027165933 3:0.0089903185 4:0.040875912 5:0.26041666 6:0.96558934 7:0.072916664 8:0.82955557 # 1a48A01 1fbnA01
-5 1:0.011465623 2:0.036343612 3:0.017634856 4:0.07883212 5:0.32291666 6:0.92362118 7:0.083333336 8:0.81652689 # 1g7rA03 2iqiG00
-5 1:0.0028372013 2:0.028267253 3:0.01625173 4:0.16934307 5:0.36458334 6:0.80463099 7:0.0625 8:0.75406033 # 1ay0A01 3co5A00
5 1:0.016849535 2:0.044787079 3:0.03492393 4:0.32554746 5:0.80208331 6:0.70284611 7:0.03125 8:0.74763519 # 1a7jA00 1m6nA01
5 1:0.013401483 2:0.039647575 3:0.030774551 4:0.27737227 5:0.72916669 6:0.77874255 7:0.072916664 8:0.8441906 # 1pv4A02 2ph1A00
-5 1:0.0063662953 2:0.033039648 3:0.019017981 4:0.24525547 5:0.86458331 6:0.72969931 7:0.0625 8:0.87515616 # 1fmtB01 3k32A00
-5 1:0.0010818181 2:0.024596183 3:0.012448133 4:0.16058394 5:0.52083331 6:0.75880367 7:0.041666668 8:0.82464749 # 1af7A02 1agxA01
-5 1:0.0063906736 2:0.031571221 3:0.017980637 4:0.10218978 5:0.25 6:0.9329474 7:0.10416666 8:0.76316261 # 1b6sA01 1jwyB00
5 1:0.0099726655 2:0.035242289 3:0.017289074 4:0.20875913 5:0.89583331 6:0.76153725 7:0.0625 8:0.77297878 # 1a40A02 1sw1A01
-5 1:0.0041617346 2:0.031204112 3:0.023858922 4:0.22773723 5:0.28125 6:0.92651552 7:0.13541667 8:0.75709444 # 1gjwA01 1vkfA00
-5 1:0.0020593645 2:0.026431719 3:0.013485477 4:0.13868614 5:0.52083331 6:0.82569546 7:0.072916664 8:0.80974478 # 1cfzA00 1eq6A00
-5 1:0.00093454093 2:0.024229076 3:0.0096818814 4:0.12408759 5:0.38541666 6:0.91670686 7:0.072916664 8:0.82072103 # 1a9xB02 1z2nX01
-5 1:0.0039689336 2:0.029001469 3:0.011065007 4:0.21167883 5:0.58333331 6:0.81797719 7:0.020833334 8:0.81251115 # 1qfxA02 1w44A01
5 1:0.00013513799 2:0.019456681 3:0.0093361 4:0.18540145 5:0.69791669 6:0.89708954 7:0.041666668 8:0.91986436 # 1ej2A00 3k32A00
-5 1:0.0012413822 2:0.025330396 3:0.011410789 4:0.24233577 5:0.59375 6:0.7682907 7:0.020833334 8:0.80456901 # 1q16A05 1rjgA00
5 1:0.00073291681 2:0.023861967 3:0.015560166 4:0.19854015 5:0.73958331 6:0.85946292 7:0.072916664 8:0.87354988 # 2g0tA02 2r2aA00
-5 1:0.0030136635 2:0.027900146 3:0.010027663 4:0.091970801 5:0.875 6:0.90319985 7:0.09375 8:0.93753344 # 2ezhA00 2f48A03
-5 1:0.0026528954 2:0.027533039 3:0.015560166 4:0.10948905 5:0.86458331 6:0.85672939 7:0.09375 8:0.95234698 # 1itpA00 1konA02
5 1:0.0007977928 2:0.024229076 3:0.0072614108 4:0.099270076 5:0.91666669 6:0.89258724 7:0.052083332 8:0.93253613 # 1ap0A00 2hdlA00
5 1:0.0043506431 2:0.030102789 3:0.014868603 4:0.13284671 5:0.42708334 6:0.92764109 7:0.072916664 8:0.84892023 # 1ak2A00 1ofuX00
5 1:0.00038401541 2:0.022026431 3:0.010027663 4:0.2 5:0.40625 6:0.70091653 7:0.03125 8:0.66625023 # 1a6cA01 1ohfA02
-5 1:0.011004121 2:0.037444934 3:0.026279392 4:0.28905109 5:0.78125 6:0.91059655 7:0.052083332 8:0.90924507 # 1m3uA00 3cjpA00
5 1:0.00093454093 2:0.024229076 3:0.012793914 4:0.11678832 5:0.26041666 6:0.9157421 7:0.052083332 8:0.75254327 # 1dpgA02 1gr0A02
5 1:0.00038401541 2:0.022026431 3:0.01175657 4:0.12408759 5:0.29166666 6:0.81170607 7:0.041666668 8:0.69355702 # 1e9rD01 2zejA02
5 1:0.014153633 2:0.040014684 3:0.025587829 4:0.24817519 5:0.30208334 6:0.73162889 7:0.072916664 8:0.76771373 # 1gw5B00 2bnxA01
-5 1:0.0039109909 2:0.029368576 3:0.019017981 4:0.3080292 5:0.78125 6:0.9196012 7:0.052083332 8:0.91326076 # 2y7eB00 3cjpA00
5 1:0.001508839 2:0.025330396 3:0.012102352 4:0.12116788 5:0.33333334 6:0.90705901 7:0.10416666 8:0.77806532 # 2zejA02 3igfA01
5 1:0.0054729339 2:0.032305434 3:0.016943293 4:0.16934307 5:0.58333331 6:0.84081042 7:0.03125 8:0.89684099 # 1bifA01 1z5zB01
5 1:0.020727243 2:0.04698972 3:0.031811897 4:0.270073 5:0.16666667 6:0.93712813 7:0.072916664 8:0.71301091 # 1u6gC00 2bnxA01
-5 1:0.05879157 2:0.081130691 3:0.069156297 4:0.18832117 5:0.47916666 6:0.94468564 7:0.19791667 8:0.91245759 # 1a1vA01 1z3iX01
-5 1:0.015552303 2:0.037812039 3:0.02351314 4:0.17226277 5:0.42708334 6:0.6692394 7:0.083333336 8:0.81857932 # 1bxwA00 2k4tA00
5 1:0.010228199 2:0.033773862 3:0.01417704 4:0.061313868 5:0.85416669 6:0.8695932 7:0.0625 8:0.73621273 # 1b9wA01 1dqbA01
5 1:0.0075526568 2:0.030837005 3:0.01417704 4:0.054014597 5:0.83333331 6:0.86300051 7:0.072916664 8:0.71247548 # 1dqbA01 1l3yA00
5 1:0.00038401541 2:0.022026431 3:0.013485477 4:0.14598539 5:0.67708331 6:0.880849 7:0.0625 8:0.93887204 # 1g5rA00 3co5A00
5 1:0.0058401478 2:0.030837005 3:0.02109267 4:0.31386861 5:0.71875 6:0.47547838 7:0.0625 8:0.86114579 # 1b89A00 1xnfA00
-5 1:0.0010067631 2:0.024596183 3:0.0072614108 4:0.11678832 5:0.9375 6:0.89821517 7:0.03125 8:0.96475101 # 1bmtA01 3bjdA01
5 1:0.00043792487 2:0.02349486 3:0.0048409407 4:0.043795619 5:0.35416666 6:0.91686767 7:0.26041666 8:0.79573441 # 1lmjA00 1yukB02
5 1:0.00067016826 2:0.02349486 3:0.005878285 4:0.05109489 5:0.32291666 6:0.93117863 7:0.17708333 8:0.80849546 # 1a48A01 1nt2A01
-2.2892317157247603631731180939823 1:0.0098945461 2:0.035242289 3:0.017634856 4:0.074452557 5:0.30208334 6:0.80093265 7:0.020833334 8:0.70649654 # 1fohA02 1ihrA00
5 1:0.00060941203 2:0.02349486 3:0.010027663 4:0.18686131 5:0.65625 6:0.91413409 7:0.03125 8:0.88675708 # 1kqrA00 1za4A00
-5 1:0.0051975693 2:0.030102789 3:0.017634856 4:0.49635038 5:0.75 6:0.83502173 7:0.052083332 8:0.84062111 # 1orvA01 1sqjB02
-5 1:8.9023473e-05 2:0.018722467 3:0.017980637 4:0.35474452 5:0.8125 6:0.80077183 7:0.052083332 8:0.89220059 # 1aa1B02 2aqwA00
5 1:4.399411e-05 2:0.01835536 3:0.0093361 4:0.16934307 5:0.76041669 6:0.92989224 7:0.09375 8:0.92057824 # 1ahsA00 1uf2C02
5 1:0.0021913934 2:0.026431719 3:0.0086445371 4:0.064233579 5:0.3125 6:0.88213539 7:0.052083332 8:0.69453865 # 1avaA02 1htyA03
5 1:0.01758245 2:0.038546257 3:0.017634856 4:0.027737226 5:0.45833334 6:0.94436407 7:0 8:0.70587188 # 1eptA00 1gpzA02
-5 1:0.0049510994 2:0.030469898 3:0.019017981 4:0.3970803 5:0.8125 6:0.76812994 7:0.0625 8:0.77681601 # 1dysA00 2qpxA00
-5 1:0.0023332108 2:0.027165933 3:0.015214385 4:0.34598541 5:0.84375 6:0.72776973 7:0.052083332 8:0.79091561 # 1do8A02 1kqpA00
5 1:4.399411e-05 2:0.017621145 3:0.010373444 4:0.075912409 5:0.29166666 6:0.85721177 7:0.041666668 8:0.72960913 # 2r2aA00 2zejA02
0.085475207473198366869837627746165 1:0.0035846035 2:0.028267253 3:0.01417704 4:0.30948904 5:0.89583331 6:0.85367423 7:0.09375 8:0.9075495 # 1a8dA01 2a5zA00
-5 1:0.0023332108 2:0.026798826 3:0.011410789 4:0.16350365 5:0.5 6:0.84772474 7:0.041666668 8:0.81509906 # 1af0A02 1zl0B01
-5 1:0.011145939 2:0.037077826 3:0.023858922 4:0.13430656 5:0.5625 6:0.91863644 7:0.11458334 8:0.89264679 # 1f5aA01 2pokA02
5 1:0.016388033 2:0.043685757 3:0.02835408 4:0.18832117 5:0.69791669 6:0.81974596 7:0.083333336 8:0.8441906 # 1a4rA00 1a5tA01
-5 1:0.0084208213 2:0.033039648 3:0.014522822 4:0.14744526 5:0.84375 6:0.60459882 7:0.072916664 8:0.88836336 # 1t7sA00 4didB01
5 1:0.0002308409 2:0.021659324 3:0.0065698479 4:0.094890513 5:0.92708331 6:0.80414855 7:0.072916664 8:0.90630019 # 1ap0A00 3d6wA01
5 1:0.00073291681 2:0.02349486 3:0.011410789 4:0.25401461 5:0.78125 6:0.92394274 7:0.083333336 8:0.91727644 # 1jhnA01 1y7bA02
5 1:0.0014154712 2:0.025697503 3:0.010719226 4:0.25255474 5:0.875 6:0.71876508 7:0.083333336 8:0.86792791 # 1q15A01 2imhA01
-5 1:8.9023473e-05 2:0.018722467 3:0.010027663 4:0.15912409 5:0.52083331 6:0.85254866 7:0.052083332 8:0.84820634 # 1d2rA01 1j5rA01
-5 1:0.004188715 2:0.029735683 3:0.013139696 4:0.21021898 5:0.875 6:0.69207269 7:0.041666668 8:0.86069965 # 1rxqA00 2r9rH02
-5 1:0.0019358598 2:0.026798826 3:0.013485477 4:0.20291971 5:0.86458331 6:0.7898376 7:0.041666668 8:0.91486704 # 1a3cA00 1bmtA02
5 1:0.0057768058 2:0.027900146 3:0.0079529742 4:0.027737226 5:0.34375 6:0.92651552 7:0.09375 8:0.81625915 # 1kloA02 1yukB02
5 1:0.0042639254 2:0.028267253 3:0.0076071923 4:0.05109489 5:0.32291666 6:0.95771027 7:0.052083332 8:0.82893091 # 1nt2A01 2jiiA01
-5 1:0.0041051689 2:0.029368576 3:0.0089903185 4:0.087591238 5:0.88541669 6:0.82778579 7:0.13541667 8:0.88720328 # 1konA01 1w1wE00
-5 1:0.0082513606 2:0.033039648 3:0.015560166 4:0.12408759 5:0.84375 6:0.79771668 7:0.17708333 8:0.89130825 # 1o6uA02 1qexA02
5 1:0.0013264477 2:0.025330396 3:0.012793914 4:0.11970803 5:0.27083334 6:0.89355201 7:0.03125 8:0.75281101 # 1a1vA02 1e2jA00
5 1:0.0052713095 2:0.031571221 3:0.019363763 4:0.40000001 5:0.79166669 6:0.62196493 7:0.052083332 8:0.78306264 # 1dosA00 1ea0A02
-5 1:0.0017104631 2:0.02606461 3:0.0079529742 4:0.1810219 5:0.6875 6:0.81058049 7:0.072916664 8:0.83776546 # 1wdjA00 2a9sA00
5 1:0.00093454093 2:0.024229076 3:0.0082987556 4:0.19270073 5:0.72916669 6:0.80302298 7:0.052083332 8:0.87694091 # 1jb7A03 1kxlA00
5 1:0.004939571 2:0.030469898 3:0.017289074 4:0.074452557 5:0.27083334 6:0.88213539 7:0.020833334 8:0.76021773 # 1f2uA00 2g0tA02
5 1:0.0013264477 2:0.025697503 3:0.013831259 4:0.329927 5:0.66666669 6:0.84338319 7:0.0625 8:0.85855794 # 1goxA00 2qezA03
5 1:0.0098945461 2:0.034508076 3:0.017634856 4:0.3970803 5:0.77083331 6:0.62019616 7:0.072916664 8:0.80581832 # 1b89A00 1hz4A00
-5 1:0.0088127283 2:0.033773862 3:0.017634856 4:0.12846716 5:0.26041666 6:0.92120922 7:0.072916664 8:0.77699447 # 1a4iB01 1f7uA01
-5 1:0.012502057 2:0.037812039 3:0.02109267 4:0.10656934 5:0.27083334 6:0.92796272 7:0.0625 8:0.77735144 # 1ve0A00 2qdrA01
5 1:0.0021913934 2:0.026431719 3:0.013831259 4:0.27153283 5:0.8125 6:0.71378034 7:0.052083332 8:0.7667321 # 1dglA00 1ikpA01
-5 1:0.00060941203 2:0.02349486 3:0.0072614108 4:0.11094891 5:0.69791669 6:0.81572598 7:0.10416666 8:0.87747633 # 2qalJ00 2qyxA02
5 1:0.0021913934 2:0.027165933 3:0.01417704 4:0.12846716 5:0.27083334 6:0.95079595 7:0.052083332 8:0.8371408 # 1cboA01 1fcdA02
-5 1:0.010419725 2:0.036343612 3:0.017980637 4:0.072992697 5:0.30208334 6:0.9358418 7:0.0625 8:0.82839549 # 2pokA02 2v3sA00
-5 1:0.0014154712 2:0.025330396 3:0.015560166 4:0.096350364 5:0.36458334 6:0.85512137 7:0.22916667 8:0.79082632 # 1g8mA04 2d00A01
5 1:0.013828504 2:0.039647575 3:0.024204703 4:0.13138686 5:0.52083331 6:0.84627753 7:0.10416666 8:0.85338211 # 2p67A02 2zejA02
5 1:0.0028352868 2:0.027900146 3:0.011410789 4:0.22043796 5:0.84375 6:0.77070266 7:0.041666668 8:0.84892023 # 1gkuB03 2r6fA01
-5 1:0.0032291082 2:0.027900146 3:0.012448133 4:0.17956205 5:0.90625 6:0.78131533 7:0.041666668 8:0.88327682 # 1lk3A00 1t5oA01
5 1:0.0037043374 2:0.028634362 3:0.010373444 4:0.07737226 5:0.29166666 6:0.9538511 7:0.14583333 8:0.82759237 # 2nrhB01 3cqyA02
-5 1:0.0023332108 2:0.027900146 3:0.018326418 4:0.32554746 5:0.8125 6:0.72149861 7:0.0625 8:0.84231663 # 1f6kC00 1z7aA00
5 1:0.0002308409 2:0.020190896 3:0.0086445371 4:0.11240876 5:0.28125 6:0.87940186 7:0.083333336 8:0.7502231 # 1a7jA00 2zejA02
5 1:0.00028054914 2:0.021292217 3:0.012448133 4:0.11094891 5:0.28125 6:0.87988424 7:0.0625 8:0.74290556 # 1pujA01 1w36F03
-5 1:0.0014154712 2:0.025330396 3:0.01175657 4:0.18540145 5:0.45833334 6:0.79257113 7:0.0625 8:0.79394966 # 1g2iA00 1m6nA01
5 1:0.0040466203 2:0.028634362 3:0.017289074 4:0.24233577 5:0.69791669 6:0.89644635 7:0.0625 8:0.88238442 # 1i82A00 1ulvA04
-5 1:0.0017104631 2:0.025330396 3:0.0082987556 4:0.12262774 5:0.5 6:0.91381252 7:0.03125 8:0.85231125 # 1c0gS00 1iicA01
-5 1:0.0030220845 2:0.028267253 3:0.022130014 4:0.3328467 5:0.8125 6:0.84386557 7:0.083333336 8:0.92816347 # 1mumA00 1to3A00
-5 1:0.0047957026 2:0.028634362 3:0.012102352 4:0.16204379 5:0.625 6:0.78581768 7:0.0625 8:0.81982869 # 1fftC00 1xg7A02
-5 1:0.05310721 2:0.085168868 3:0.071576767 4:0.28613138 5:0.65625 6:0.93407303 7:0.083333336 8:0.92423701 # 1ep3A00 1vizA00
-5 1:0.0084208213 2:0.033406753 3:0.012448133 4:0.11386862 5:0.85416669 6:0.9343946 7:0.10416666 8:0.95698732 # 1im3D00 1o75A04
5 1:0.0016069969 2:0.025697503 3:0.0093361 4:0.11970803 5:0.28125 6:0.79015917 7:0.083333336 8:0.7394253 # 1dliA03 1qmgA02
5 1:0.0020593645 2:0.026431719 3:0.010719226 4:0.12700731 5:0.77083331 6:0.91767168 7:0.03125 8:0.93119758 # 1bsvA02 1xgkA02
5 1:0.00067016826 2:0.02349486 3:0.0082987556 4:0.12408759 5:0.3125 6:0.73243284 7:0.041666668 8:0.70738888 # 1dklB01 1dkqA02
5 1:0.00086494564 2:0.023861967 3:0.011065007 4:0.15036497 5:0.375 6:0.72198105 7:0.041666668 8:0.66803497 # 1a7jA00 1f2uB00
5 1:8.9023473e-05 2:0.018722467 3:0.0072614108 4:0.17372262 5:0.73958331 6:0.92201316 7:0.052083332 8:0.94110298 # 1ej2A00 1k92A01
5 1:0.005210767 2:0.030837005 3:0.013831259 4:0.1649635 5:0.64583331 6:0.87827623 7:0.0625 8:0.89273602 # 1c9kB00 1z5zB01
-5 1:0.004094054 2:0.030469898 3:0.01417704 4:0.14306569 5:0.86458331 6:0.92426437 7:0.052083332 8:0.94877744 # 1a9xA08 1ofuX00
5 1:0.018009471 2:0.045154184 3:0.033540804 4:0.086131386 5:0.27083334 6:0.82698184 7:0.041666668 8:0.70114225 # 1byiA00 1f2uA00
5 1:0.00028054914 2:0.021659324 3:0.0048409407 4:0.067153282 5:0.83333331 6:0.84048885 7:0.052083332 8:0.87658399 # 1yuiA00 1z1bA01
5 1:0.0019358598 2:0.02606461 3:0.0093361 4:0.15328467 5:0.71875 6:0.88454735 7:0.052083332 8:0.88702482 # 1r0uA00 2a13A00
5 1:0.0020593645 2:0.02606461 3:0.0065698479 4:0.083211675 5:0.83333331 6:0.89998394 7:0.03125 8:0.97938603 # 1gh9A00 2pstX00
-5 1:0.0020593645 2:0.026431719 3:0.0076071923 4:0.11386862 5:0.86458331 6:0.89017528 7:0.072916664 8:0.92700338 # 1nbeB01 2hiyA02
5 1:0.0018198448 2:0.026431719 3:0.005878285 4:0.12408759 5:0.30208334 6:0.84885031 7:0.0625 8:0.7422809 # 2c0lA00 2i6hA02
5 1:0.00043792487 2:0.022760646 3:0.0069156294 4:0.091970801 5:0.89583331 6:0.87296993 7:0.15625 8:0.96591109 # 1ap0A00 1azpA00
-5 1:0.0018198448 2:0.026431719 3:0.010027663 4:0.39562044 5:0.32291666 6:0.70236373 7:0.072916664 8:0.67633408 # 1qgrA00 2c0lA00
5 1:0.00060941203 2:0.023127753 3:0.01175657 4:0.3051095 5:0.63541669 6:0.89226562 7:0.052083332 8:0.88488311 # 1gg1A00 1jcjA00
5 1:0.0031757865 2:0.028634362 3:0.020401107 4:0.22043796 5:0.625 6:0.82842898 7:0.125 8:0.88363379 # 1bu6O01 3cqyA01
5 1:0.0026528954 2:0.027165933 3:0.0093361 4:0.099270076 5:0.70833331 6:0.91204375 7:0.052083332 8:0.9084419 # 1fbqA00 1ka8A00
-5 1:0.0056311777 2:0.030469898 3:0.013831259 4:0.11678832 5:0.80208331 6:0.94693679 7:0.125 8:0.99152237 # 1dceA02 1ix2A00
-5 1:0.00043792487 2:0.02239354 3:0.019709544 4:0.16788322 5:0.625 6:0.83309215 7:0.03125 8:0.81634837 # 1rybA00 1w5sA02
-5 1:0.0017104631 2:0.02606461 3:0.0089903185 4:0.072992697 5:0.86458331 6:0.85319185 7:0.10416666 8:0.94877744 # 1dp3A00 1hlvA02
-5 1:0.0002308409 2:0.021659324 3:0.010373444 4:0.13138686 5:0.84375 6:0.92153078 7:0.020833334 8:0.95493484 # 1nt0A01 1o6uA02
5 1:0.00028054914 2:0.02092511 3:0.01625173 4:0.15766424 5:0.375 6:0.67406332 7:0.020833334 8:0.68400854 # 1f2uA00 1w36B03
-5 1:0.0024863854 2:0.027165933 3:0.0093361 4:0.099270076 5:0.53125 6:0.82730341 7:0.10416666 8:0.82634306 # 1e3mA02 1eh7A01
5 1:0.00049339712 2:0.022760646 3:0.0093361 4:0.099270076 5:0.88541669 6:0.88744169 7:0.10416666 8:0.88372302 # 1aq6A02 1cqzB02
-5 1:0.0020593645 2:0.026431719 3:0.011065007 4:0.17664233 5:0.4375 6:0.86895001 7:0.052083332 8:0.79876852 # 1l9xA00 1z5zB01
-5 1:0.0024863854 2:0.027165933 3:0.013831259 4:0.11970803 5:0.54166669 6:0.82955462 7:0.03125 8:0.84240586 # 1npdA01 1z5zB01
5 1:0.026718734 2:0.055433188 3:0.043222684 4:0.11240876 5:0.30208334 6:0.76845151 7:0.041666668 8:0.65964663 # 1f2uA00 3igfA01
5 1:0.00093454093 2:0.024596183 3:0.010027663 4:0.052554745 5:0.86458331 6:0.94259524 7:0.13541667 8:0.92923433 # 1a3pA00 1b9wA02
-5 1:0.0016069969 2:0.025697503 3:0.0069156294 4:0.067153282 5:0.375 6:0.90062714 7:0.041666668 8:0.83999646 # 1dfxA00 1pfoA04
5 1:0.0047483193 2:0.030102789 3:0.010719226 4:0.094890513 5:0.875 6:0.80832928 7:0.09375 8:0.90790647 # 1c1yB00 1wz3A01
-5 1:0.0042279307 2:0.029735683 3:0.016597511 4:0.21897811 5:0.47916666 6:0.72294581 7:0.0625 8:0.81608069 # 1a8iA02 1j5xA01
5 1:0.00013513799 2:0.019823788 3:0.011065007 4:0.29489052 5:0.60416669 6:0.58433831 7:0.0625 8:0.66223454 # 1a6cA01 1wcdJ01
5 1:0.001508839 2:0.025697503 3:0.016597511 4:0.23941606 5:0.57291669 6:0.67502815 7:0.052083332 8:0.62511152 # 1ohfA02 2tbvA00
5 1:0.001508839 2:0.025697503 3:0.0082987556 4:0.094890513 5:0.89583331 6:0.91751087 7:0.0625 8:0.95145458 # 2b0cA02 2pkeA02
5 1:0.013134027 2:0.040014684 3:0.024204703 4:0.46569344 5:0.28125 6:0.53047115 7:0.072916664 8:0.70578259 # 1m8zA00 1u6gC00
-5 1:0.0016069969 2:0.025697503 3:0.011410789 4:0.1649635 5:0.84375 6:0.9136517 7:0.13541667 8:0.92191684 # 1zl0B02 3i6sA03
-5 1:0.0011599376 2:0.024963289 3:0.0096818814 4:0.12116788 5:0.46875 6:0.868146 7:0.03125 8:0.84695697 # 1a04A01 1rqgA01
-5 1:0.010419725 2:0.038179148 3:0.02109267 4:0.15474452 5:0.3125 6:0.77761698 7:0.13541667 8:0.78002858 # 1f7uA01 2kyrA00
-5 1:0.0010818181 2:0.024596183 3:0.010027663 4:0.13576642 5:0.5625 6:0.91123974 7:0.052083332 8:0.86899877 # 1bgwA02 1gsaA01
5 1:0.0047483193 2:0.029001469 3:0.01175657 4:0.15182482 5:0.90625 6:0.89628559 7:0.0625 8:0.91183293 # 1bqsA02 3butA00
-5 1:0.00055052555 2:0.022760646 3:0.0089903185 4:0.19562043 5:0.51041669 6:0.88744169 7:0.03125 8:0.83214349 # 1bgwA02 1brwA02
-5 1:0.0021913934 2:0.026431719 3:0.0079529742 4:0.11094891 5:0.67708331 6:0.85174465 7:0.0625 8:0.854096 # 1y7mA02 3cqzH00
-5 1:0.0048333849 2:0.028267253 3:0.0051867221 4:0.054014597 5:0.85416669 6:0.86943239 7:0.020833334 8:0.92521864 # 1b8wA00 1gkuB01
-5 1:0.0049626972 2:0.031571221 3:0.01625173 4:0.13576642 5:0.27083334 6:0.69062549 7:0.083333336 8:0.69668037 # 1f7uA01 3ju3A00
5 1:4.399411e-05 2:0.016519824 3:0.0089903185 4:0.13868614 5:0.3125 6:0.79466152 7:0.0625 8:0.70658576 # 1dpgA02 1f06A02
5 1:8.9023473e-05 2:0.019456681 3:0.0034578147 4:0.086131386 5:0.91666669 6:0.84901112 7:0.10416666 8:0.96492952 # 1a15A00 1azpA00
5 1:0.0029154005 2:0.027533039 3:0.012102352 4:0.20583941 5:0.76041669 6:0.91815406 7:0.072916664 8:0.92236304 # 1paqA00 3feyA02
-5 1:0.004450358 2:0.029735683 3:0.0086445371 4:0.084671535 5:0.875 6:0.81604761 7:0.0625 8:0.88836336 # 2jnaA01 2vpzA04
5 1:0.0041771051 2:0.031571221 3:0.022475796 4:0.24671532 5:0.30208334 6:0.86927158 7:0.0625 8:0.70194536 # 1gjwA01 1h09A01
5 1:0.0023332108 2:0.026798826 3:0.014868603 4:0.16788322 5:0.73958331 6:0.90368229 7:0.083333336 8:0.91941816 # 1a4iB01 2ph5A01
5 1:0.0038876331 2:0.028634362 3:0.0093361 4:0.093430653 5:0.86458331 6:0.77440101 7:0.041666668 8:0.92718184 # 1a15A00 2b2tA02
5 1:0.0044414778 2:0.029735683 3:0.0093361 4:0.10364964 5:0.86458331 6:0.77150667 7:0.072916664 8:0.9042477 # 1wh6A01 1xwrC00
5 1:0.016193254 2:0.039647575 3:0.025242047 4:0.21459854 5:0.46875 6:0.8293938 7:0.13541667 8:0.83374977 # 1eb6A00 1r1hA01
-5 1:0.00028054914 2:0.021659324 3:0.0093361 4:0.096350364 5:0.34375 6:0.9559415 7:0.15625 8:0.85793322 # 1g7rA03 1kwgA02
-5 1:0.008947866 2:0.035976507 3:0.022130014 4:0.14744526 5:0.30208334 6:0.85962373 7:0.072916664 8:0.81367123 # 1a9xA01 2rauA00
5 1:0.0026528954 2:0.026798826 3:0.0079529742 4:0.15182482 5:0.86458331 6:0.84145361 7:0.0625 8:0.8474924 # 1jmxA04 1txkA02
5 1:0.0014154712 2:0.025330396 3:0.023167359 4:0.1649635 5:0.875 6:0.79787749 7:0.052083332 8:0.89907193 # 1ft9A01 3d0jA00
5 1:0.0060851956 2:0.030837005 3:0.015905948 4:0.19124088 5:0.625 6:0.92490757 7:0.072916664 8:0.88889879 # 1cx1A00 1ju3A02
5 1:0.011746173 2:0.037444934 3:0.030082988 4:0.37810218 5:0.22916667 6:0.78372729 7:0.072916664 8:0.71559876 # 1u6gC00 1w9cA00
5 1:0.0050889184 2:0.030469898 3:0.0186722 4:0.17518248 5:0.88541669 6:0.74304551 7:0.072916664 8:0.93690878 # 1mzgA00 1q48A00
-5 1:0.0085680988 2:0.033773862 3:0.015214385 4:0.11824817 5:0.83333331 6:0.77231067 7:0.11458334 8:0.94645727 # 1b7yB06 1xn9A00
-5 1:0.0036362496 2:0.028634362 3:0.011410789 4:0.11532847 5:0.875 6:0.83132339 7:0.03125 8:0.90281993 # 1dc1A02 1ny9A00
5 1:0.00028054914 2:0.022026431 3:0.0082987556 4:0.13138686 5:0.29166666 6:0.88921046 7:0.020833334 8:0.76976621 # 1b89A00 3ckcA02
5 1:0.0021913934 2:0.027165933 3:0.0062240665 4:0.10364964 5:0.28125 6:0.86637723 7:0.10416666 8:0.78984475 # 1xnfA00 2i6hA02
5 1:0.0028352868 2:0.027900146 3:0.014868603 4:0.17956205 5:0.28125 6:0.92860591 7:0.052083332 8:0.78484738 # 1dnpA01 1wkbA01
5 1:0.003075572 2:0.028267253 3:0.01417704 4:0.17956205 5:0.90625 6:0.8702364 7:0.0625 8:0.95029449 # 1jqlB00 3co5A00
5 1:0.0040502278 2:0.029368576 3:0.015560166 4:0.12262774 5:0.28125 6:0.89853674 7:0.0625 8:0.73576653 # 1e2jA00 1ofuX00
5 1:0.0002308409 2:0.02092511 3:0.012102352 4:0.18540145 5:0.28125 6:0.9068982 7:0.020833334 8:0.75495273 # 1ahpA01 1pswA01
-5 1:0.0018198448 2:0.02606461 3:0.011065007 4:0.17956205 5:0.86458331 6:0.77954656 7:0.09375 8:0.85757631 # 1ey1A00 1ungE00
-5 1:0.0049510994 2:0.031204112 3:0.020401107 4:0.14598539 5:0.26041666 6:0.92860591 7:0.020833334 8:0.77351421 # 1qo7A00 1rqgA01
5 1:0.0038744125 2:0.028267253 3:0.013831259 4:0.15036497 5:0.88541669 6:0.76410997 7:0.09375 8:0.89380687 # 1d9cA00 1jliA00
5 1:0.0035315591 2:0.027900146 3:0.016597511 4:0.17080292 5:0.89583331 6:0.79305357 7:0.11458334 8:0.89951813 # 1d9cA00 1lk3A00
-4.8539364087405516556827933527529 1:0.0018198448 2:0.025697503 3:0.010719226 4:0.18978103 5:0.97916669 6:0.22752854 7:0.072916664 8:0.82375515 # 1m1jC03 2k0sA00
5 1:0.014545539 2:0.035609398 3:0.028699862 4:0.12262774 5:0.89583331 6:0.7570349 7:0.10416666 8:0.88996965 # 1jm7B00 2uzgA00
5 1:0.015410486 2:0.042584434 3:0.025587829 4:0.26423359 5:0.92708331 6:0.71972984 7:0.083333336 8:0.8276816 # 1a4rA00 2r8rA00
-5 1:0.025662262 2:0.045888398 3:0.032849241 4:0.23065694 5:0.39583334 6:0.84209681 7:0.11458334 8:0.81393898 # 1bxwA00 2o4vA00
-5 1:0.0014154712 2:0.025697503 3:0.01417704 4:0.19270073 5:0.33333334 6:0.8687892 7:0.11458334 8:0.80858469 # 1dquA01 2f7fA02
5 1:0.0024863854 2:0.02606461 3:0.0096818814 4:0.062773719 5:0.875 6:0.89885831 7:0.041666668 8:0.8980903 # 1a3pA00 1b9wA01
5 1:0.0028352868 2:0.027533039 3:0.0096818814 4:0.043795619 5:0.79166669 6:0.84097123 7:0.052083332 8:0.79787612 # 1k8vA00 2idbA03
5 1:0.014225855 2:0.041483112 3:0.026279392 4:0.16642335 5:0.77083331 6:0.70879561 7:0.0625 8:0.74147779 # 1f2uA00 3fdiA00
5 1:0.007741814 2:0.033039648 3:0.019017981 4:0.15474452 5:0.60416669 6:0.90850621 7:0.083333336 8:0.88229519 # 2h3gX02 2zgyA01
5 1:0.0010067631 2:0.023861967 3:0.010027663 4:0.13430656 5:0.3125 6:0.88808489 7:0.072916664 8:0.72827059 # 1e2jA00 2zejA02
5 1:0.00060941203 2:0.02349486 3:0.0082987556 4:0.12116788 5:0.30208334 6:0.93632418 7:0.083333336 8:0.78083169 # 1s1mA01 2zejA02
-5 1:0.0073197703 2:0.033039648 3:0.023858922 4:0.34452555 5:0.76041669 6:0.78919441 7:0.125 8:0.93191147 # 1aw5A00 1mumA00
5 1:0.0041464861 2:0.028634362 3:0.0069156294 4:0.11678832 5:0.3125 6:0.85303104 7:0.083333336 8:0.72416562 # 1ouvA00 2i6hA02
-5 1:0.0019358598 2:0.02606461 3:0.011065007 4:0.28175181 5:0.46875 6:0.56874096 7:0.041666668 8:0.77708369 # 1ap9A00 1ek9A00
-5 1:0.0018198448 2:0.026431719 3:0.018326418 4:0.25255474 5:0.48958334 6:0.55250043 7:0.072916664 8:0.73335713 # 1od2A03 1qg8A00
5 1:0.0047587478 2:0.030469898 3:0.022821577 4:0.31240875 5:0.54166669 6:0.86235732 7:0.041666668 8:0.83437443 # 1ea0B03 1to3A00
-5 1:0.011145939 2:0.037077826 3:0.020055326 4:0.14306569 5:0.78125 6:0.92860591 7:0.125 8:0.97367483 # 1grwA00 1xf1A03
-5 1:0.0048885373 2:0.029735683 3:0.015214385 4:0.11824817 5:0.82291669 6:0.9157421 7:0.10416666 8:0.96207386 # 1mkyA03 1uwdA00
5 1:4.399411e-05 2:0.013215859 3:0.011410789 4:0.19562043 5:0.45833334 6:0.62775367 7:0.03125 8:0.68695343 # 1pujA01 1w36B03
-5 1:0.0017104631 2:0.025330396 3:0.0096818814 4:0.087591238 5:0.60416669 6:0.82231867 7:0.03125 8:0.86944497 # 1irxA05 2l3dA00
-5 1:0.0018198448 2:0.026798826 3:0.013485477 4:0.17226277 5:0.70833331 6:0.867342 7:0.072916664 8:0.84713548 # 1gpmA02 1htwA00
-5 1:0.001508839 2:0.025330396 3:0.0082987556 4:0.087591238 5:0.83333331 6:0.9456504 7:0.10416666 8:0.97260398 # 1i4wA02 2gqfA03
-5 1:0.013401483 2:0.038913362 3:0.022130014 4:0.14160584 5:0.84375 6:0.89934075 7:0.052083332 8:0.94922364 # 1cvrA01 1t1jA00
5 1:0.00018239123 2:0.020190896 3:0.010373444 4:0.19562043 5:0.29166666 6:0.84563434 7:0.10416666 8:0.74469036 # 1ahpA01 2hy7A02
5 1:0.0012413822 2:0.024963289 3:0.010719226 4:0.17956205 5:0.71875 6:0.91107893 7:0.10416666 8:0.91995358 # 1jqlB00 1z6tA02
-5 1:0.0020593645 2:0.026431719 3:0.0089903185 4:0.15328467 5:0.83333331 6:0.9030391 7:0.10416666 8:0.95475638 # 1ayoA00 1tzaA00
-5 1:0.0056147515 2:0.031938326 3:0.020401107 4:0.1970803 5:0.28125 6:0.8480463 7:0.083333336 8:0.72693199 # 1ac5A00 1rcuA00
-5 1:0.0068927491 2:0.030837005 3:0.016943293 4:0.15474452 5:0.85416669 6:0.87425631 7:0.0625 8:0.91620559 # 1a9vA00 1jzdC00
5 1:0.0007977928 2:0.023861967 3:0.019709544 4:0.35474452 5:0.66666669 6:0.85254866 7:0.083333336 8:0.85525614 # 1bheA00 1rwrA00
-5 1:0.007870296 2:0.035609398 3:0.02109267 4:0.21459854 5:0.28125 6:0.70075577 7:0.03125 8:0.64429772 # 1aqlA00 1v8dC00
5 1:0.0031849537 2:0.027900146 3:0.01625173 4:0.22773723 5:0.66666669 6:0.90062714 7:0.09375 8:0.88104588 # 1jg7A01 1uqtA01
-5 1:0.0010067631 2:0.024963289 3:0.010373444 4:0.20145985 5:0.66666669 6:0.81074131 7:0.041666668 8:0.837587 # 1lbqB01 1w5sA02
5 1:0.0014154712 2:0.025330396 3:0.01175657 4:0.18686131 5:0.70833331 6:0.82071072 7:0.052083332 8:0.93119758 # 1x8mA02 1xe7A00
5 1:0.00049339712 2:0.02239354 3:0.016943293 4:0.22773723 5:0.73958331 6:0.90609425 7:0.052083332 8:0.9097805 # 1c8nC00 1ny7100
5 1:0.0016069969 2:0.025697503 3:0.014522822 4:0.12700731 5:0.88541669 6:0.87827623 7:0.041666668 8:0.8947885 # 1fc3B00 2l3dA00
-5 1:0.00043792487 2:0.02239354 3:0.0089903185 4:0.19270073 5:0.86458331 6:0.84483033 7:0.052083332 8:0.9126361 # 1a8mA00 1ciyA03
-5 1:0.0007977928 2:0.023861967 3:0.012448133 4:0.12992701 5:0.47916666 6:0.87136197 7:0.052083332 8:0.82134569 # 1cfmA01 3cihA01
5 1:0.0020593645 2:0.02606461 3:0.0055325036 4:0.14014599 5:0.83333331 6:0.91879725 7:0.03125 8:0.95270389 # 1jajA01 1vj7B02
5 1:0.0018198448 2:0.02606461 3:0.0076071923 4:0.07883212 5:0.84375 6:0.91268694 7:0.03125 8:0.93690878 # 2pw9A02 2qsdA01
-5 1:0.0044107181 2:0.029368576 3:0.010027663 4:0.11678832 5:0.84375 6:0.90770221 7:0.03125 8:0.94958061 # 1b7yB06 1mwqA00
-5 1:0.015552303 2:0.03928047 3:0.022821577 4:0.11240876 5:0.30208334 6:0.72841293 7:0.03125 8:0.70087451 # 1eo0A00 1xqrA00
5 1:0.00060941203 2:0.023127753 3:0.012793914 4:0.10802919 5:0.76041669 6:0.88454735 7:0.09375 8:0.94476175 # 1eh7A02 1fc3B00
-5 1:0.0021913934 2:0.027165933 3:0.013139696 4:0.18832117 5:0.65625 6:0.85367423 7:0.10416666 8:0.83812243 # 1dkuA02 1jhdA01
-5 1:8.9023473e-05 2:0.019456681 3:0.013139696 4:0.14744526 5:0.84375 6:0.89692879 7:0.041666668 8:0.95984292 # 1gyvA00 1ji1A01
-5 1:0.00049339712 2:0.022760646 3:0.01175657 4:0.14890511 5:0.84375 6:0.86348289 7:0.10416666 8:0.95502412 # 1t6cA01 2vqeK00
5 1:0.00038401541 2:0.02239354 3:0.0089903185 4:0.10948905 5:0.32291666 6:0.79643029 7:0.052083332 8:0.70961982 # 2ph1A00 2zejA02
5 1:0.0002308409 2:0.02092511 3:0.012793914 4:0.17664233 5:0.35416666 6:0.74803025 7:0.010416667 8:0.68186688 # 1a6cA01 1f8vC00
5 1:0.0023332108 2:0.026798826 3:0.0076071923 4:0.12116788 5:0.30208334 6:0.83711207 7:0.09375 8:0.73969305 # 1qqeA00 2i6hA02
5 1:0.0026528954 2:0.027900146 3:0.0093361 4:0.10364964 5:0.33333334 6:0.81556523 7:0.052083332 8:0.6892736 # 1j1nA01 3cvgA02
5 1:0.0019358598 2:0.026431719 3:0.012793914 4:0.12846716 5:0.34375 6:0.79208875 7:0.041666668 8:0.67704803 # 1p9rA02 2zejA02
5 1:0.0084208213 2:0.035242289 3:0.023858922 4:0.26861313 5:0.5625 6:0.85447824 7:0.041666668 8:0.84820634 # 1bu8A01 1gxsA00
-5 1:0.0041389074 2:0.029735683 3:0.015905948 4:0.31240875 5:0.83333331 6:0.89821517 7:0.052083332 8:0.88613242 # 1bqgA02 1c3fA00
5 1:0.0007977928 2:0.023861967 3:0.0096818814 4:0.12554744 5:0.3125 6:0.77005947 7:0.052083332 8:0.75388187 # 1a7jA00 1ofuX00
-5 1:0.0085680988 2:0.034508076 3:0.017634856 4:0.13722628 5:0.27083334 6:0.70927805 7:0.0625 8:0.64260221 # 1f0jA00 1jeyA04
-5 1:0.0031735015 2:0.028634362 3:0.013831259 4:0.20145985 5:0.41666666 6:0.87891942 7:0.041666668 8:0.78252721 # 1bu8A01 1pq4A01
5 1:0.0011599376 2:0.024963289 3:0.01417704 4:0.19854015 5:0.65625 6:0.81411803 7:0.0625 8:0.90049976 # 1d2rA01 1k92A01
-5 1:0.0044414778 2:0.030469898 3:0.014868603 4:0.31678832 5:0.83333331 6:0.9068982 7:0.041666668 8:0.89211136 # 1nvmA01 1vpqA00
-5 1:0.0042160815 2:0.029368576 3:0.0186722 4:0.28467155 5:0.82291669 6:0.89178324 7:0.083333336 8:0.90683562 # 1d7kA02 1znnB00
-5 1:0.0019358598 2:0.026798826 3:0.015560166 4:0.28613138 5:0.84375 6:0.8465991 7:0.0625 8:0.8994289 # 1jztA00 1xcjA00
-5 1:0.010632573 2:0.036710721 3:0.024550484 4:0.064233579 5:0.28125 6:0.880045 7:0.041666668 8:0.70622879 # 1kn6A00 3kc2A02
5 1:0.0055112848 2:0.030837005 3:0.016597511 4:0.18540145 5:0.71875 6:0.87473869 7:0.072916664 8:0.88854188 # 1jg7A01 1pswA02
-5 1:0.01766945 2:0.045154184 3:0.033886585 4:0.31970802 5:0.78125 6:0.86621642 7:0.072916664 8:0.93869358 # 1mumA00 3ijdA00
5 1:0.00038401541 2:0.021292217 3:0.023167359 4:0.14014599 5:0.54166669 6:0.84257919 7:0.0625 8:0.87667322 # 1a5tA01 1t0hB00
-5 1:0.0037843413 2:0.029368576 3:0.016597511 4:0.35766423 5:0.80208331 6:0.87698984 7:0.0625 8:0.87238979 # 1rjqA02 1ypxA00
-5 1:0.005210767 2:0.030837005 3:0.017980637 4:0.20291971 5:0.8125 6:0.90609425 7:0.10416666 8:0.9291451 # 1e2uA04 1f0kA02
5 1:0.0010067631 2:0.024963289 3:0.0082987556 4:0.086131386 5:0.34375 6:0.78597844 7:0.03125 8:0.73692667 # 1a99A02 2p0sA01
5 1:0.0024863854 2:0.027165933 3:0.015560166 4:0.12554744 5:0.3125 6:0.83872002 7:0.041666668 8:0.70533645 # 1m6nA01 2zejA02
-5 1:0.011828493 2:0.038179148 3:0.022475796 4:0.059854016 5:0.23958333 6:0.83421773 7:0.052083332 8:0.65170443 # 1dgtB07 2nx2A00
-5 1:0.00028054914 2:0.021292217 3:0.010719226 4:0.15328467 5:0.64583331 6:0.81106287 7:0.083333336 8:0.86435837 # 1a1vA02 1jqkA02
5 1:0.00093454093 2:0.024596183 3:0.0055325036 4:0.052554745 5:0.32291666 6:0.84322238 7:0 8:0.7488845 # 1fznD00 2ia1B02
5 1:0.0013264477 2:0.025330396 3:0.015905948 4:0.28321168 5:0.70833331 6:0.89934075 7:0.10416666 8:0.87381762 # 1cnvA00 1sfsA00
5 1:0.006570613 2:0.029368576 3:0.028008299 4:0.099270076 5:0.59375 6:0.84483033 7:0.09375 8:0.87640548 # 1jm7B00 1zbdB00
-5 1:0.00093454093 2:0.024596183 3:0.017980637 4:0.31532848 5:0.83333331 6:0.90175271 7:0.052083332 8:0.9121899 # 1nvmA01 3cjpA00
-5 1:0.0035988104 2:0.028634362 3:0.017289074 4:0.36642337 5:0.76041669 6:0.90866697 7:0.0625 8:0.9018383 # 1a5cA00 1fobA00
5 1:0.0023332108 2:0.027165933 3:0.0055325036 4:0.036496349 5:0.40625 6:0.87843704 7:0.020833334 8:0.65054435 # 1mt1A00 1pjuA01
5 1:0.0007977928 2:0.023861967 3:0.00034578147 4:0.030656934 5:0.38541666 6:0.86332208 7:0 8:0.71158308 # 2ct1A01 2r1fA01
5 1:0.00028054914 2:0.021292217 3:0.0079529742 4:0.20437956 5:0.60416669 6:0.79996783 7:0.072916664 8:0.80858469 # 1vqzA01 1yb3A00
5 1:0.00028054914 2:0.020558003 3:0.0086445371 4:0.10510949 5:0.34375 6:0.84450877 7:0.052083332 8:0.78645366 # 1ckeA00 1ofuX00
-5 1:0.0040180045 2:0.029001469 3:0.012793914 4:0.15036497 5:0.47916666 6:0.90368229 7:0.072916664 8:0.82321972 # 1bifA02 1ofuX00
-5 1:0.006710358 2:0.032305434 3:0.021784233 4:0.43649635 5:0.73958331 6:0.80061102 7:0.052083332 8:0.84392291 # 1ccwB01 1ituA00
-5 1:0.00086494564 2:0.024229076 3:0.017980637 4:0.42335767 5:0.73958331 6:0.77600902 7:0.0625 8:0.86301982 # 1dquA01 2nt0A01
5 1:0.0045461752 2:0.030469898 3:0.012793914 4:0.11094891 5:0.30208334 6:0.89226562 7:0.072916664 8:0.75539887 # 1b0uA00 2zejA02
5 1:0.0044953874 2:0.030102789 3:0.015560166 4:0.18832117 5:0.69791669 6:0.90207428 7:0.052083332 8:0.91343921 # 1ej2A00 2derA01
5 1:0.020111842 2:0.047356829 3:0.033195022 4:0.16204379 5:0.44791666 6:0.8607493 7:0.03125 8:0.77520972 # 1nlfA00 1pujA01
-5 1:0.0071850852 2:0.033039648 3:0.012448133 4:0.10072993 5:0.8125 6:0.90545106 7:0.072916664 8:0.9788506 # 1eh7A02 1w1wE00
5 1:0.0050889184 2:0.030469898 3:0.02593361 4:0.40437958 5:0.33333334 6:0.76957709 7:0.083333336 8:0.75388187 # 1ho8A01 1qbkB00
5 1:0.011004121 2:0.037444934 3:0.024550484 4:0.41021898 5:0.33333334 6:0.88712013 7:0.052083332 8:0.71488488 # 1m8zA00 1qbkB00
-5 1:0.005210767 2:0.031204112 3:0.020746889 4:0.23795621 5:0.3125 6:0.8882457 7:0.052083332 8:0.73683739 # 1ak2A00 1aqlA00
-5 1:0.0048941411 2:0.031571221 3:0.01625173 4:0.21897811 5:0.29166666 6:0.83936322 7:0.041666668 8:0.71854365 # 1aqlA00 1g2iA00
-2.279805303420936457570178390597 1:-999 2:-999 3:-999 4:0.045255475 5:0.67708331 6:0.88133138 7:0.15625 8:0.86882025 # 1m8oB00 1m90Q03
5 1:0 2:0.010279002 3:0.013139696 4:0.36934307 5:0.65625 6:0.80607814 7:0.041666668 8:0.84472603 # 1bwkA00 1gg1A00
-5 1:0.00013513799 2:0.020558003 3:0.011065007 4:0.15328467 5:0.59375 6:0.85206622 7:0.052083332 8:0.85070497 # 1ebfA01 2az4A02
-5 1:0.00049339712 2:0.022760646 3:0.0079529742 4:0.12554744 5:0.52083331 6:0.91445571 7:0.041666668 8:0.86177045 # 1bgwA02 1z2nX01
5 1:0.0023332108 2:0.027165933 3:0.015905948 4:0.32116789 5:0.75 6:0.67245537 7:0.052083332 8:0.79073709 # 1w36F03 3do6A01
-5 1:0.0020593645 2:0.026798826 3:0.017634856 4:0.40729928 5:0.65625 6:0.67374176 7:0.083333336 8:0.86721396 # 1a0cA00 1f6kC00
5 1:0.0017104631 2:0.025330396 3:0.00034578147 4:0.027737226 5:0.44791666 6:0.91123974 7:0.052083332 8:0.63912189 # 1gpzA02 2hrvA01
-5 1:0.0034506882 2:0.029368576 3:0.013485477 4:0.20291971 5:0.69791669 6:0.83550411 7:0.03125 8:0.83553451 # 1bifA01 1jg7A02
5 1:0.00086494564 2:0.023861967 3:0.01625173 4:0.3941606 5:0.76041669 6:0.67390257 7:0.052083332 8:0.82045335 # 1ny7200 2tbvA00
5 1:0.00055052555 2:0.023127753 3:0.015560166 4:0.3941606 5:0.80208331 6:0.67358094 7:0.041666668 8:0.83330357 # 1a6cA01 2tbvA00
5 1:0.00093454093 2:0.024229076 3:0.005878285 4:0.074452557 5:0.36458334 6:0.9284451 7:0.052083332 8:0.8093878 # 1fbnA01 1ia9A01
5 1:0.00028054914 2:0.021659324 3:0.011410789 4:0.080291972 5:0.3125 6:0.94372088 7:0.09375 8:0.81001252 # 2nrhB01 3cqyA01
5 1:0.0032150543 2:0.028634362 3:0.013139696 4:0.2729927 5:0.61458331 6:0.84402639 7:0.052083332 8:0.83749777 # 1a53A00 1fcqA00
-5 1:0.004939571 2:0.030102789 3:0.013139696 4:0.097810216 5:0.29166666 6:0.94757998 7:0.0625 8:0.82750314 # 1b3bA02 1g7rA03
5 1:0.00028054914 2:0.021659324 3:0.0076071923 4:0.11824817 5:0.83333331 6:0.74047273 7:0.072916664 8:0.87372833 # 1a7gE00 1xn9A00
-5 1:0.0014154712 2:0.025330396 3:0.010719226 4:0.18832117 5:0.85416669 6:0.83277053 7:0.072916664 8:0.90692484 # 1c2yA00 2hy7A02
5 1:0.0034011831 2:0.028634362 3:0.011410789 4:0.12408759 5:0.28125 6:0.95819265 7:0.10416666 8:0.83901483 # 2zejA02 3do6A01
5 1:0.0020593645 2:0.026431719 3:0.01175657 4:0.25109488 5:0.71875 6:0.87618589 7:0.0625 8:0.89362842 # 1a8dA01 1ikpA01
-5 1:0.0024863854 2:0.028267253 3:0.016943293 4:0.15036497 5:0.41666666 6:0.88197458 7:0.041666668 8:0.80242729 # 1ri5A00 2derA01
5 1:0.0053197592 2:0.030469898 3:0.011410789 4:0.19854015 5:0.88541669 6:0.89917994 7:0.052083332 8:0.8877387 # 1cztA00 1dyoA00
5 1:0.0010818181 2:0.024596183 3:0.013485477 4:0.14890511 5:0.29166666 6:0.94275606 7:0.052083332 8:0.80198109 # 1ea0A02 2f7fA02
5 1:0.0021913934 2:0.026798826 3:0.01175657 4:0.13430656 5:0.3125 6:0.8240875 7:0.10416666 8:0.71613419 # 1esmA00 2zejA02
-5 1:0.00038401541 2:0.02239354 3:0.010719226 4:0.16350365 5:0.83333331 6:0.88840652 7:0.11458334 8:0.92905587 # 1amuA02 2r47A01
5 1:0.011706303 2:0.038179148 3:0.027662518 4:0.11678832 5:0.29166666 6:0.85463899 7:0.052083332 8:0.73710513 # 1jqlB00 1jwyB00
-5 1:0.020887764 2:0.054331865 3:0.036652837 4:0.10510949 5:0.34375 6:0.76587874 7:0.10416666 8:0.78457969 # 2fbqA00 2jn6A01
-5 1:0.0043976852 2:0.030469898 3:0.013485477 4:0.15620437 5:0.64583331 6:0.81395721 7:0.052083332 8:0.83276814 # 1gpmA02 1gpuA03
-5 1:0.0011599376 2:0.025330396 3:0.0093361 4:0.1839416 5:0.65625 6:0.90223509 7:0.072916664 8:0.86873102 # 1t5oA02 3b89A02
5 1:0.0083512263 2:0.034140971 3:0.021438451 4:0.21021898 5:0.82291669 6:0.78517449 7:0.0625 8:0.79653758 # 1c9kB00 1t0hB00
-5 1:0.010321567 2:0.037812039 3:0.023858922 4:0.13722628 5:0.33333334 6:0.9343946 7:0.072916664 8:0.82429057 # 1a9xA01 1do8A02
-5 1:0.0021913934 2:0.027900146 3:0.0186722 4:0.28759125 5:0.35416666 6:0.9269979 7:0.03125 8:0.77440655 # 1gjwA01 2agkA00
-5 1:0.00060941203 2:0.02239354 3:0.011410789 4:0.32262772 5:0.5625 6:0.2103232 7:0.072916664 8:0.76824915 # 1qu7B00 2nwlC00
5 1:0.0082191974 2:0.033773862 3:0.024204703 4:0.14452554 5:0.77083331 6:0.64672774 7:0.083333336 8:0.91102982 # 1h3zA00 1wgsA00
-5 1:0.0017104631 2:0.025697503 3:0.0055325036 4:0.11678832 5:0.875 6:0.8084901 7:0.020833334 8:0.90594321 # 1s12A00 1xb2B03
5 1:0.0080956919 2:0.034508076 3:0.019709544 4:0.12700731 5:0.27083334 6:0.95626307 7:0.0625 8:0.82509369 # 1fcdA02 1vqwA01
-5 1:0.0011599376 2:0.024963289 3:0.0086445371 4:0.10218978 5:0.86458331 6:0.82714266 7:0.072916664 8:0.89380687 # 1iioA00 1zboA02
-5 1:0.011145939 2:0.037444934 3:0.0186722 4:0.13868614 5:0.82291669 6:0.76861233 7:0.072916664 8:0.9366411 # 1jr2A01 3ju3A00
-5 1:0.00049339712 2:0.022760646 3:0.0093361 4:0.17226277 5:0.84375 6:0.76539636 7:0.0625 8:0.8952347 # 1htyA03 3cfuA00
5 1:0.0017104631 2:0.02606461 3:0.0093361 4:0.12408759 5:0.3125 6:0.9083454 7:0.0625 8:0.7625379 # 1odfA00 2zejA02
-5 1:0.011706303 2:0.038546257 3:0.020746889 4:0.11386862 5:0.26041666 6:0.86830682 7:0.072916664 8:0.70899516 # 1e2jA00 1g7rA03
5 1:0 2:0.01578561 3:0.015560166 4:0.11240876 5:0.84375 6:0.77311462 7:0.125 8:0.86908799 # 1weoA00 2uzgA00
5 1:0.00073291681 2:0.02349486 3:0.0093361 4:0.11532847 5:0.86458331 6:0.85447824 7:0.072916664 8:0.94797432 # 1zbsA02 3c0bA01
5 1:0.0079517402 2:0.033773862 3:0.02109267 4:0.1781022 5:0.52083331 6:0.89982313 7:0.0625 8:0.87703013 # 1gr0A01 1i8tA01
-5 1:0.0013264477 2:0.025330396 3:0.014868603 4:0.11240876 5:0.65625 6:0.82891142 7:0.072916664 8:0.83303589 # 1rniA02 1w27A03
-5 1:0.0029700513 2:0.027533039 3:0.011065007 4:0.15766424 5:0.83333331 6:0.83405691 7:0.072916664 8:0.94708192 # 1furA01 1yozA00
-5 1:0.0017104631 2:0.025697503 3:0.011065007 4:0.17080292 5:0.84375 6:0.84708154 7:0.0625 8:0.92379081 # 1dj0A01 1ekrA00
-5 1:0.0029990154 2:0.028267253 3:0.014522822 4:0.14598539 5:0.69791669 6:0.74208075 7:0.052083332 8:0.85364985 # 2bbhA01 2fpnA01
5 1:0.00086494564 2:0.024229076 3:0.0048409407 4:0.033576641 5:0.77083331 6:0.93503779 7:0.16666667 8:0.95555949 # 1d4vA02 1p0t100
-5 1:0.0012413822 2:0.024963289 3:0.0082987556 4:0.070072994 5:0.29166666 6:0.93712813 7:0.10416666 8:0.80367661 # 1vq8W02 1wphA00
5 1:0.010523191 2:0.035976507 3:0.028699862 4:0.43065694 5:0.34375 6:0.83277053 7:0.0625 8:0.74718899 # 1ho8A01 1qgrA00
-5 1:0.00033158308 2:0.022026431 3:0.011410789 4:0.17372262 5:0.8125 6:0.87264836 7:0.0625 8:0.99045151 # 1kshB00 2r5oA01
5 1:0.00038401541 2:0.022026431 3:0.014522822 4:0.12116788 5:0.30208334 6:0.88808489 7:0.0625 8:0.75557739 # 1nstA00 2zejA02
5 1:0.0010818181 2:0.024596183 3:0.010373444 4:0.11532847 5:0.91666669 6:0.91654605 7:0.072916664 8:0.8919329 # 1ef5A00 1i42A00
-5 1:0.0055984645 2:0.030102789 3:0.014868603 4:0.065693431 5:0.41666666 6:0.93214345 7:0 8:0.852579 # 1cb8A03 4dxzA00
-5 1:0.013712489 2:0.03928047 3:0.021784233 4:0.11824817 5:0.38541666 6:0.91172212 7:0.125 8:0.82375515 # 1agxA02 1lbqB01
5 1:0.0023332108 2:0.027165933 3:0.015214385 4:0.38248175 5:0.76041669 6:0.65348125 7:0.041666668 8:0.81956095 # 1a5cA00 1ea0A02
5 1:0.0041964939 2:0.029368576 3:0.01417704 4:0.23065694 5:0.8125 6:0.75237179 7:0.0625 8:0.78948778 # 1qvrC05 3l2oB02
5 1:0.010632573 2:0.037444934 3:0.024550484 4:0.17664233 5:0.47916666 6:0.90319985 7:0.072916664 8:0.83830088 # 1e69A00 1jqlB00
-5 1:0.0089951195 2:0.033039648 3:0.012448133 4:0.03941606 5:0.26041666 6:0.96591091 7:0.020833334 8:0.77574515 # 1ospO01 2f4lA02
-5 1:0.00049339712 2:0.023127753 3:0.012448133 4:0.38540146 5:0.65625 6:0.71522754 7:0.041666668 8:0.85579157 # 1bqcA00 1ccwB01
-5 1:0.0012413822 2:0.024963289 3:0.017634856 4:0.4569343 5:0.66666669 6:0.68596238 7:0.041666668 8:0.70596111 # 1ac5A00 1ahpA01
5 1:0 2:0.017254038 3:0.0065698479 4:0.048175182 5:0.35416666 6:0.92603314 7:0.052083332 8:0.7746743 # 1jm7B00 1k2fA02
5 1:0.0089017516 2:0.033773862 3:0.020746889 4:0.40583941 5:0.78125 6:0.68210322 7:0.041666668 8:0.80831695 # 1b89A00 1w3bB00
-5 1:0.0012413822 2:0.024963289 3:0.012102352 4:0.34890512 5:0.76041669 6:0.63177359 7:0.0625 8:0.8102802 # 1a8iA02 1rjgA00
-5 1:0.0044238404 2:0.030102789 3:0.020746889 4:0.34890512 5:0.76041669 6:0.67695773 7:0.041666668 8:0.82821703 # 1a8iA02 1jqdA00
5 1:0.0019358598 2:0.026798826 3:0.0093361 4:0.11094891 5:0.3125 6:0.93310821 7:0.052083332 8:0.79278958 # 1bu6O01 1okjA02
5 1:0.00028054914 2:0.021659324 3:0.010373444 4:0.10802919 5:0.3125 6:0.94661522 7:0.083333336 8:0.82634306 # 1ihuA01 2zejA02
-5 1:0.0079796771 2:0.034140971 3:0.020055326 4:0.067153282 5:0.34375 6:0.94468564 7:0.041666668 8:0.83169729 # 1h54A03 3fbqA02
-5 1:0.0080368062 2:0.034508076 3:0.020401107 4:0.22481751 5:0.5625 6:0.75365812 7:0.041666668 8:0.72773516 # 1a3cA00 3d0kA00
-5 1:0.0019358598 2:0.026798826 3:0.01625173 4:0.17518248 5:0.39583334 6:0.84418714 7:0.041666668 8:0.79055864 # 1e19A00 1omoA02
5 1:0.0024863854 2:0.027533039 3:0.015560166 4:0.055474453 5:0.32291666 6:0.91445571 7:0.041666668 8:0.79546672 # 1j9iA00 2zbkA01
-5 1:0.0039758668 2:0.029001469 3:0.010027663 4:0.064233579 5:0.33333334 6:0.93761057 7:0.13541667 8:0.81724077 # 1h72C02 1r89A04
5 1:0.0040977518 2:0.029735683 3:0.015214385 4:0.38832116 5:0.8125 6:0.74867344 7:0.0625 8:0.87720865 # 1ak5A00 1gg1A00
5 1:0.0061707366 2:0.032672539 3:0.019709544 4:0.21751826 5:0.54166669 6:0.89869756 7:0.072916664 8:0.88720328 # 1ak2A00 1s1mA01
5 1:0.0056560845 2:0.031938326 3:0.02109267 4:0.087591238 5:0.3125 6:0.92506832 7:0.13541667 8:0.77262181 # 1el4A00 1h8bA00
-5 1:0.0026528954 2:0.027533039 3:0.010719226 4:0.067153282 5:0.375 6:0.92185241 7:0.17708333 8:0.84338748 # 1e0eA00 1hkqA00
-5 1:0.0019358598 2:0.02606461 3:0.0089903185 4:0.043795619 5:0.33333334 6:0.92635471 7:0.083333336 8:0.82509369 # 1agrE01 1iv8A04
5 1:0.0010818181 2:0.024596183 3:0.0186722 4:0.29781023 5:0.75 6:0.70123816 7:0.041666668 8:0.74790293 # 1jwyB00 1w36F03
5 1:0.015154952 2:0.040014684 3:0.027316736 4:0.26277372 5:0.65625 6:0.6177842 7:0.020833334 8:0.66981971 # 1b35C00 2tbvA00
-5 1:0.007241651 2:0.033406753 3:0.0186722 4:0.34160584 5:0.85416669 6:0.68757033 7:0.041666668 8:0.72380865 # 1e69A00 3d0kA00
5 1:0.0026528954 2:0.026431719 3:0.010027663 4:0.052554745 5:0.42708334 6:0.95401192 7:0.21875 8:0.87149739 # 1b9wA02 1lmjA00
5 1:0.001508839 2:0.025330396 3:0.0093361 4:0.062773719 5:0.32291666 6:0.92828429 7:0.11458334 8:0.85320365 # 1arbA02 2hrvA01
5 1:0.017064089 2:0.043685757 3:0.032849241 4:0.23941606 5:0.65625 6:0.81202763 7:0.072916664 8:0.81518829 # 1dg3A02 3igfA01
5 1:0.0020593645 2:0.026431719 3:0.017289074 4:0.27445257 5:0.67708331 6:0.83775526 7:0.041666668 8:0.88479388 # 1eamA00 1g38A01
-5 1:0.0010818181 2:0.024596183 3:0.0096818814 4:0.15766424 5:0.51041669 6:0.92506832 7:0.0625 8:0.84329826 # 1c8nC00 1v0aA01
5 1:0.0050703692 2:0.030102789 3:0.015214385 4:0.14160584 5:0.72916669 6:0.93117863 7:0.072916664 8:0.93610567 # 1a4iB01 1dxyA01
-5 1:0.024091184 2:0.050660793 3:0.034578148 4:0.22335766 5:0.73958331 6:0.94356006 7:0.11458334 8:0.97099769 # 1vkfA00 1y0eA00
-5 1:0.0029274111 2:0.027533039 3:0.013485477 4:0.22919708 5:0.80208331 6:0.91927963 7:0.083333336 8:0.95841515 # 1e94A00 2ntkB00
5 1:0.0019358598 2:0.02606461 3:0.0096818814 4:0.14160584 5:0.36458334 6:0.75607014 7:0.052083332 8:0.68124217 # 1dpeA02 1j1nA02
5 1:0.009250653 2:0.035609398 3:0.022475796 4:0.17956205 5:0.41666666 6:0.69834381 7:0.072916664 8:0.65339994 # 1f2uA00 3do6A01
5 1:0.00049339712 2:0.022760646 3:0.010719226 4:0.16788322 5:0.40625 6:0.76105481 7:0.072916664 8:0.74460113 # 1bg6A02 1qmgA02
-5 1:0.0037439214 2:0.029001469 3:0.014868603 4:0.20729928 5:0.60416669 6:0.87007558 7:0.041666668 8:0.79403889 # 1jv2B02 1xmxA01
-5 1:0.0010818181 2:0.024596183 3:0.0051867221 4:0.087591238 5:0.83333331 6:0.89387363 7:0.020833334 8:0.95359629 # 1pm3A00 3be3A00
-5 1:0.0014154712 2:0.024963289 3:0.0065698479 4:0.062773719 5:0.85416669 6:0.87055796 7:0.083333336 8:0.89603782 # 1mpgA03 3hzjC01
5 1:0.0038449962 2:0.028634362 3:0.015214385 4:0.17664233 5:0.33333334 6:0.71924746 7:0.020833334 8:0.70810282 # 1gff200 1ny7200
5 1:0.0034401591 2:0.028634362 3:0.010027663 4:0.13284671 5:0.32291666 6:0.79868144 7:0.020833334 8:0.72809207 # 1dv2A02 1m0wA02
5 1:0.0007977928 2:0.023861967 3:0.011065007 4:0.16642335 5:0.72916669 6:0.92458594 7:0.083333336 8:0.91004819 # 1v0aA01 2o14A01
5 1:0.0014154712 2:0.025330396 3:0.014868603 4:0.16788322 5:0.6875 6:0.92233479 7:0.072916664 8:0.92423701 # 1hjrA00 1j54A00
-5 1:0.0024863854 2:0.027165933 3:0.010027663 4:0.12116788 5:0.8125 6:0.89178324 7:0.041666668 8:0.96939141 # 1t6t100 1uc8A01
-5 1:0.022701988 2:0.04955947 3:0.030428769 4:0.12846716 5:0.78125 6:0.87698984 7:0.03125 8:0.95234698 # 2i52B00 2ia7A00
5 1:0.0055112848 2:0.030837005 3:0.0186722 4:0.30948904 5:0.59375 6:0.61488986 7:0.03125 8:0.69043368 # 1ny7200 1ohfA02
5 1:0.002943543 2:0.028267253 3:0.014868603 4:0.36058393 5:0.61458331 6:0.61199552 7:0.041666668 8:0.75539887 # 1ct9B02 1ffyA01
-5 1:0.0010067631 2:0.024596183 3:0.017634856 4:0.34744525 5:0.45833334 6:0.63724071 7:0.052083332 8:0.6723184 # 1aqlA00 2pmbA02
-5 1:0.0081258295 2:0.035976507 3:0.026970955 4:0.34452555 5:0.45833334 6:0.68724877 7:0.052083332 8:0.67874354 # 1aqlA00 1esmA00
-5 1:0.0035537146 2:0.028634362 3:0.01175657 4:0.13284671 5:0.375 6:0.81460041 7:0.020833334 8:0.80537212 # 1mgpA01 1ri5A00
5 1:0.0024863854 2:0.026798826 3:0.0072614108 4:0.062773719 5:0.57291669 6:0.96044379 7:0.10416666 8:0.95752275 # 1biaA03 3by7A00
-5 1:0.0018198448 2:0.026431719 3:0.012102352 4:0.11094891 5:0.80208331 6:0.9224956 7:0.10416666 8:0.94440478 # 1cdzA00 1wzuA01
5 1:0.0034140872 2:0.027900146 3:0.0093361 4:0.091970801 5:0.85416669 6:0.86203569 7:0.09375 8:0.9830448 # 2jxtA01 2qsdA01
-5 1:0.0039898101 2:0.029368576 3:0.017289074 4:0.22919708 5:0.3125 6:0.78067213 7:0.03125 8:0.72764593 # 1e1cA01 1ny1A00
-5 1:0.001508839 2:0.025330396 3:0.0079529742 4:0.087591238 5:0.83333331 6:0.87168354 7:0.083333336 8:0.91415316 # 2oy9A01 2px6A02
5 1:0.0002308409 2:0.021292217 3:0.0065698479 4:0.071532845 5:0.90625 6:0.9015919 7:0.10416666 8:0.9150455 # 1bw6A00 1ef4A00
-5 1:0.0029990154 2:0.027165933 3:0.010719226 4:0.16788322 5:0.76041669 6:0.77424026 7:0.052083332 8:0.83981794 # 1dyoA00 1f35A00
5 1:0.00018239123 2:0.02092511 3:0.012102352 4:0.16788322 5:0.36458334 6:0.7242322 7:0.072916664 8:0.71863288 # 1kqrA00 1wd3A01
-5 1:0.0034244733 2:0.027900146 3:0.0096818814 4:0.059854016 5:0.83333331 6:0.83325291 7:0.17708333 8:0.86658931 # 1k3eA01 1okrA02
5 1:0.0024863854 2:0.027533039 3:0.013831259 4:0.14014599 5:0.33333334 6:0.81492203 7:0.03125 8:0.70221311 # 1w36B03 3fdiA00
5 1:0.00043792487 2:0.022760646 3:0.010719226 4:0.12846716 5:0.32291666 6:0.84081042 7:0.072916664 8:0.72211313 # 1aquB00 2zejA02
-5 1:0.0048388289 2:0.030102789 3:0.014522822 4:0.21459854 5:0.4375 6:0.81942433 7:0.10416666 8:0.76914155 # 1cfzA00 2rauA00
5 1:0.0018198448 2:0.026431719 3:0.01175657 4:0.14014599 5:0.35416666 6:0.89130086 7:0.11458334 8:0.77297878 # 1odfA00 1ofuX00
-5 1:0.004499949 2:0.029368576 3:0.02109267 4:0.12262774 5:0.30208334 6:0.91333014 7:0.125 8:0.79537749 # 1a4iA02 2q0xA01
-5 1:0.0085302033 2:0.034508076 3:0.019709544 4:0.29635036 5:0.8125 6:0.88744169 7:0.072916664 8:0.90353382 # 1tygA00 3cjpA00
5 1:0.0032197274 2:0.028267253 3:0.013485477 4:0.12554744 5:0.33333334 6:0.85737258 7:0.072916664 8:0.70114225 # 1e69A00 2zejA02
5 1:0.0095456447 2:0.036343612 3:0.026279392 4:0.16788322 5:0.625 6:0.85512137 7:0.072916664 8:0.87462074 # 1i8tA01 1jvsA01
5 1:0.0021913934 2:0.026431719 3:0.013831259 4:0.26569343 5:0.69791669 6:0.90979254 7:0.0625 8:0.89014816 # 1ar7200 1auyB00
-5 1:0.011004121 2:0.035976507 3:0.017289074 4:0.10656934 5:0.28125 6:0.830037 7:0.083333336 8:0.73201859 # 1g7rA03 1gt6A00
-5 1:0.00073291681 2:0.024229076 3:0.024550484 4:0.26861313 5:0.8125 6:0.9083454 7:0.0625 8:0.89951813 # 1d7kA02 2agkA00
-5 1:0.00086494564 2:0.024229076 3:0.014522822 4:0.18686131 5:0.85416669 6:0.86895001 7:0.052083332 8:0.87711942 # 1dnpA01 1lw7A02
5 1:0.0018198448 2:0.026431719 3:0.011410789 4:0.11824817 5:0.32291666 6:0.85110146 7:0.083333336 8:0.72925216 # 1nlfA00 2zejA02
5 1:0.0010067631 2:0.025330396 3:0.0069156294 4:0.094890513 5:0.33333334 6:0.77375782 7:0.020833334 8:0.7407639 # 1a7lA02 2p0sA01
-5 1:0.0045229224 2:0.029368576 3:0.0082987556 4:0.14890511 5:0.6875 6:0.81427884 7:0.0625 8:0.85382831 # 1euvA02 3fuyA00
-5 1:0.0034375358 2:0.027900146 3:0.010373444 4:0.11240876 5:0.6875 6:0.77424026 7:0.09375 8:0.83901483 # 1do0A02 1y8aA02
-5 1:0.0030157652 2:0.027900146 3:0.011410789 4:0.19124088 5:0.44791666 6:0.81862038 7:0.0625 8:0.78948778 # 1gpeA03 2p1wA01
5 1:0.0007977928 2:0.023861967 3:0.011410789 4:0.19270073 5:0.85416669 6:0.91461653 7:0.03125 8:0.91575944 # 1cx1A00 1cztA00
5 1:8.9023473e-05 2:0.01835536 3:0.0093361 4:0.11970803 5:0.3125 6:0.83051938 7:0.10416666 8:0.74924147 # 1cp2A00 2zejA02
5 1:4.399411e-05 2:0.017988253 3:0.0086445371 4:0.17664233 5:0.625 6:0.90995336 7:0.09375 8:0.94449401 # 1a1vA01 1pjrA03
-5 1:0.0017104631 2:0.026431719 3:0.0048409407 4:0.068613142 5:0.86458331 6:0.89114004 7:0.03125 8:0.87301445 # 1bl0A01 1ha8A00
5 1:0.0098194908 2:0.034875184 3:0.02593361 4:0.14160584 5:0.27083334 6:0.8941952 7:0.052083332 8:0.81956095 # 1w3bB00 3ckcA02
-5 1:0.0010818181 2:0.024229076 3:0.011410789 4:0.13868614 5:0.3125 6:0.76523554 7:0.041666668 8:0.81750846 # 1eb4A02 2okuA00
5 1:0.0020593645 2:0.026431719 3:0.011065007 4:0.14452554 5:0.86458331 6:0.90705901 7:0.052083332 8:0.92985898 # 1darA04 1pvgA02
5 1:0.0028391178 2:0.027533039 3:0.013485477 4:0.14160584 5:0.86458331 6:0.90561181 7:0.0625 8:0.91067284 # 1txkA02 3butA00
5 1:0.010054111 2:0.035976507 3:0.02351314 4:0.16934307 5:0.60416669 6:0.8628397 7:0.072916664 8:0.88086742 # 1an9A01 1jvsA01
5 1:0.0047483193 2:0.030102789 3:0.016597511 4:0.34452555 5:0.41666666 6:0.78517449 7:0.052083332 8:0.73067999 # 1gw5B00 1m8zA00
5 1:0.0029415193 2:0.028267253 3:0.019709544 4:0.3080292 5:0.54166669 6:0.88020581 7:0.052083332 8:0.84981263 # 1ea0B03 2aqwA00
-5 1:0.0036567168 2:0.030469898 3:0.022821577 4:0.31386861 5:0.38541666 6:0.89274806 7:0.072916664 8:0.76914155 # 1gjwA01 1v6tA00
-5 1:0.00086494564 2:0.023861967 3:0.0086445371 4:0.084671535 5:0.83333331 6:0.81025887 7:0.11458334 8:0.91388541 # 1gyzA00 1pjrA02
-5 1:0.0028352868 2:0.027900146 3:0.01417704 4:0.16058394 5:0.82291669 6:0.88422579 7:0.10416666 8:0.92941284 # 1jflA01 2q07A01
5 1:0.00013513799 2:0.019456681 3:0.011065007 4:0.23211679 5:0.32291666 6:0.868146 7:0.041666668 8:0.73424953 # 1eswA00 1h09A01
5 1:0.0031757865 2:0.028267253 3:0.016943293 4:0.28613138 5:0.72916669 6:0.86123168 7:0.0625 8:0.87060505 # 1fx0A02 1w36F03
-5 1:0.00073291681 2:0.02349486 3:0.014522822 4:0.28467155 5:0.36458334 6:0.8501367 7:0.0625 8:0.78101015 # 1a5aA00 1eexA00
5 1:0.007741814 2:0.033773862 3:0.02109267 4:0.18248175 5:0.72916669 6:0.86991477 7:0.052083332 8:0.89086205 # 1z5zB01 2p67A02
5 1:0.016172787 2:0.036710721 3:0.029737206 4:0.083211675 5:0.60416669 6:0.817334 7:0.15625 8:0.86882025 # 1e53A00 1jm7B00
-5 1:0.0046128267 2:0.029735683 3:0.017289074 4:0.080291972 5:0.25 6:0.90577263 7:0.041666668 8:0.7493307 # 1bifA02 2zejA02
-5 1:0.0029844786 2:0.027900146 3:0.010719226 4:0.14890511 5:0.71875 6:0.79643029 7:0.0625 8:0.86168122 # 1auwA01 1w36B04
5 1:0.0040144571 2:0.029368576 3:0.015214385 4:0.27153283 5:0.85416669 6:0.8152436 7:0.083333336 8:0.85775477 # 1bcoA01 1x9mA01
5 1:0.00067016826 2:0.02349486 3:0.0093361 4:0.089051098 5:0.3125 6:0.90914941 7:0.03125 8:0.79814386 # 1pjrA03 2zejA02
-5 1:0.0084930435 2:0.034140971 3:0.022475796 4:0.20437956 5:0.85416669 6:0.7965911 7:0.09375 8:0.82919866 # 1epuA04 1zl0B01
5 1:0.0060234596 2:0.032305434 3:0.018326418 4:0.28175181 5:0.65625 6:0.83807689 7:0.09375 8:0.86632162 # 1h65A00 3do6A01
5 1:0.00093454093 2:0.024229076 3:0.01175657 4:0.24087591 5:0.89583331 6:0.86267889 7:0.10416666 8:0.91085136 # 1t0hB00 2g0tA02
-5 1:0.0049110511 2:0.030469898 3:0.016597511 4:0.15474452 5:0.6875 6:0.75060302 7:0.020833334 8:0.85061574 # 1t5oA01 2hktA00
-5 1:0.0037686939 2:0.028634362 3:0.012102352 4:0.1810219 5:0.84375 6:0.80752534 7:0.072916664 8:0.8976441 # 1acmA01 2r47A01
-5 1:0.0014154712 2:0.025697503 3:0.015214385 4:0.12846716 5:0.3125 6:0.92587233 7:0.125 8:0.81197572 # 1a9xA01 1l9xA00
-5 1:0.0045602634 2:0.029735683 3:0.015214385 4:0.11970803 5:0.28125 6:0.92442513 7:0.083333336 8:0.78333038 # 1escA00 1jb1A00
5 1:0.0029577711 2:0.027900146 3:0.013139696 4:0.26569343 5:0.84375 6:0.83132339 7:0.052083332 8:0.85686237 # 1bcoA01 1d5aA02
-5 1:0.0007977928 2:0.023861967 3:0.013139696 4:0.1810219 5:0.86458331 6:0.77777779 7:0.0625 8:0.86132431 # 1evyA02 1jfzA00
5 1:0.0021913934 2:0.026431719 3:0.011410789 4:0.14744526 5:0.72916669 6:0.9089886 7:0.11458334 8:0.90960199 # 1fp4A02 1pq4A02
-5 1:0.009250653 2:0.032672539 3:0.014522822 4:0.16058394 5:0.5625 6:0.22945811 7:0.072916664 8:0.71988219 # 1av1C00 3cx5B02
5 1:0.015871987 2:0.041483112 3:0.022475796 4:0.080291972 5:0.3125 6:0.94018328 7:0.125 8:0.83062643 # 2nrhB01 2zgyA01
-5 1:8.9023473e-05 2:0.019823788 3:0.017980637 4:0.11532847 5:0.29166666 6:0.90738058 7:0.14583333 8:0.74433339 # 1a4iA02 1jwyB00
5 1:0.0023332108 2:0.026431719 3:0.011065007 4:0.21751826 5:0.8125 6:0.73757839 7:0.052083332 8:0.82205963 # 1auyB00 1gff200
-5 1:0.0012413822 2:0.024963289 3:0.0093361 4:0.14160584 5:0.45833334 6:0.87329155 7:0.0625 8:0.82411206 # 1m0wA04 2pg3A00
-5 1:0.0078178635 2:0.031571221 3:0.012102352 4:0.11386862 5:0.625 6:0.87296993 7:0.0625 8:0.83267891 # 1a9vA00 1ejfA00
5 1:0.015410486 2:0.042951543 3:0.032157678 4:0.17226277 5:0.66666669 6:0.817334 7:0.052083332 8:0.86783868 # 1htwA00 1t0hB00
5 1:0.00055052555 2:0.02349486 3:0.0048409407 4:0.059854016 5:0.72916669 6:0.9411481 7:0.041666668 8:0.98224163 # 1e8bA01 2kmsA02
-5 1:0.0071482831 2:0.031938326 3:0.013485477 4:0.13868614 5:0.79166669 6:0.93278664 7:0.083333336 8:0.95627344 # 1ar0A00 1mwrA01
5 1:0.0083857076 2:0.034508076 3:0.020055326 4:0.26131386 5:0.47916666 6:0.68129927 7:0.052083332 8:0.66999823 # 1gxsA00 1ji3A00
-5 1:0.0056898063 2:0.031204112 3:0.02351314 4:0.30364963 5:0.375 6:0.8896929 7:0.03125 8:0.76164556 # 1fcqA00 1gjwA01
5 1:0.0064403815 2:0.031571221 3:0.026625173 4:0.34160584 5:0.27083334 6:0.90143108 7:0.0625 8:0.78538281 # 1qgrA00 1w9cA00
-5 1:0 2:0.012848752 3:0.005878285 4:0.099270076 5:0.8125 6:0.85303104 7:0.11458334 8:0.93717653 # 1j26A01 2jyaA00
-5 1:0.0016069969 2:0.025697503 3:0.018326418 4:0.23065694 5:0.3125 6:0.8486895 7:0.072916664 8:0.73085845 # 1dl2A00 1n1bA01
-5 1:0.0038064648 2:0.028634362 3:0.013831259 4:0.15182482 5:0.41666666 6:0.86171412 7:0.083333336 8:0.78993398 # 1jvsA01 1q3kA00
5 1:0.0017104631 2:0.025697503 3:0.0055325036 4:0.083211675 5:0.84375 6:0.81556523 7:0.10416666 8:0.9469927 # 1a15A00 3d6wA01
-5 1:0.0011599376 2:0.024596183 3:0.0082987556 4:0.16642335 5:0.84375 6:0.91027498 7:0.041666668 8:0.9253971 # 1gwkA00 2df7A02
-5 1:0.00018239123 2:0.020558003 3:0.0089903185 4:0.14598539 5:0.84375 6:0.82666022 7:0.0625 8:0.9130823 # 1epuA01 1ik6A02
5 1:0.0014154712 2:0.024963289 3:0.0086445371 4:0.12116788 5:0.33333334 6:0.81443959 7:0.09375 8:0.73246473 # 1f0yA02 1pgjA02
5 1:0.0033230637 2:0.028267253 3:0.013831259 4:0.18832117 5:0.30208334 6:0.89065766 7:0.052083332 8:0.77056932 # 1efpA02 1wkbA01
5 1:0.0077921762 2:0.034875184 3:0.02109267 4:0.1839416 5:0.46875 6:0.88020581 7:0.072916664 8:0.84740317 # 1aquB00 2p67A02
5 1:4.399411e-05 2:0.01835536 3:0.011410789 4:0.17664233 5:0.86458331 6:0.91236532 7:0.052083332 8:0.93940747 # 1gwkA00 2o14A01
-5 1:0.0011599376 2:0.024596183 3:0.01175657 4:0.19416058 5:0.53125 6:0.75655252 7:0.041666668 8:0.82339817 # 1jmaA00 2bemA00
-5 1:0.0059734914 2:0.030469898 3:0.01175657 4:0.14598539 5:0.60416669 6:0.83582568 7:0.03125 8:0.8305372 # 1nkgA03 2b20A01
5 1:0.0016069969 2:0.025697503 3:0.014868603 4:0.21313868 5:0.32291666 6:0.80061102 7:0.072916664 8:0.72398716 # 1ahpA01 1jg7A02
5 1:0.0047850711 2:0.029735683 3:0.013139696 4:0.11678832 5:0.86458331 6:0.81267083 7:0.072916664 8:0.89469928 # 1ef5A00 2v3sA00
-5 1:0.0082513606 2:0.032305434 3:0.015905948 4:0.24233577 5:0.33333334 6:0.90914941 7:0.072916664 8:0.75718367 # 1h09A01 1xrsA00
-5 1:0.010419725 2:0.035609398 3:0.018326418 4:0.083211675 5:0.8125 6:0.79562628 7:0.10416666 8:0.8971979 # 1dl6A00 1jj2Y00
-5 1:0.0034296878 2:0.029001469 3:0.020055326 4:0.10072993 5:0.77083331 6:0.83212733 7:0.10416666 8:0.94092453 # 1a04A02 2ezkA00
5 1:0.0010818181 2:0.024963289 3:0.01175657 4:0.14160584 5:0.36458334 6:0.77198905 7:0.020833334 8:0.68829197 # 1j1nA02 2p0sA01
5 1:4.399411e-05 2:0.01835536 3:0.012102352 4:0.20729928 5:0.80208331 6:0.87715065 7:0.072916664 8:0.90870965 # 1j83A00 1umhA00
5 1:0.0017104631 2:0.02606461 3:0.012448133 4:0.13576642 5:0.76041669 6:0.9224956 7:0.052083332 8:0.92932355 # 1n2zA02 1pq4A02
-5 1:0.0021913934 2:0.027165933 3:0.014522822 4:0.19416058 5:0.28125 6:0.9030391 7:0.09375 8:0.73826522 # 1ac5A00 1dxyA01
-5 1:0.00018239123 2:0.02092511 3:0.012102352 4:0.1810219 5:0.8125 6:0.82199711 7:0.13541667 8:0.93369621 # 1d09A02 1k75A03
-5 1:0.00055052555 2:0.022760646 3:0.013139696 4:0.1781022 5:0.8125 6:0.88374335 7:0.083333336 8:0.9432447 # 1qv9A01 2hy7A02
-5 1:0.0016069969 2:0.025697503 3:0.010373444 4:0.15036497 5:0.65625 6:0.89435601 7:0.03125 8:0.91227913 # 1cfzA00 1i7dA01
5 1:0.0002308409 2:0.020190896 3:0.0089903185 4:0.12700731 5:0.3125 6:0.93777132 7:0.052083332 8:0.82286274 # 1a5tA01 1s1mA01
-5 1:0.00043792487 2:0.022026431 3:0.013139696 4:0.40000001 5:0.51041669 6:0.68242484 7:0.0625 8:0.8144744 # 1eexA00 1k87A03
-5 1:0.011828493 2:0.038913362 3:0.024204703 4:0.36934307 5:0.76041669 6:0.83823764 7:0.072916664 8:0.90719259 # 1ep3A00 1kblA04
5 1:0.00073291681 2:0.02349486 3:0.0096818814 4:0.094890513 5:0.32291666 6:0.92860591 7:0.041666668 8:0.80269498 # 1aroP05 3mfiA03
5 1:0.0010818181 2:0.024596183 3:0.0072614108 4:0.055474453 5:0.32291666 6:0.84643835 7:0.010416667 8:0.80430126 # 1g4dA00 2zbkA01
5 1:0.0066532297 2:0.031571221 3:0.013485477 4:0.12554744 5:0.57291669 6:0.93391222 7:0.020833334 8:0.91799039 # 1auvA03 1eucB01
-5 1:0.0029254041 2:0.027900146 3:0.02109267 4:0.34160584 5:0.8125 6:0.84081042 7:0.072916664 8:0.85739779 # 1e9iC02 1to3A00
-5 1:0.00067016826 2:0.02349486 3:0.01417704 4:0.3328467 5:0.79166669 6:0.78260171 7:0.0625 8:0.87105125 # 1e9iC02 1mumA00
5 1:0.0028817747 2:0.027165933 3:0.0089903185 4:0.045255475 5:0.34375 6:0.95545906 7:0.020833334 8:0.80385506 # 1befA01 2f4lA02
5 1:0.00055052555 2:0.023127753 3:0.012102352 4:0.096350364 5:0.32291666 6:0.90609425 7:0.083333336 8:0.75325716 # 1aroP05 1dgsA05
-5 1:0.0033934822 2:0.028634362 3:0.01625173 4:0.16788322 5:0.67708331 6:0.7957871 7:0.052083332 8:0.84008569 # 1cmwA01 1f0kA02
5 1:0.012099107 2:0.03928047 3:0.024896266 4:0.15036497 5:0.53125 6:0.92297798 7:0.09375 8:0.86489379 # 1g5rA00 1nijA01
-5 1:0.0014154712 2:0.025330396 3:0.0096818814 4:0.13722628 5:0.45833334 6:0.90191346 7:0.03125 8:0.82821703 # 1ig0A01 1xv5A02
5 1:0.025178112 2:0.055800293 3:0.039419089 4:0.31678832 5:0.80208331 6:0.71587074 7:0.083333336 8:0.77226484 # 1jwyB00 1pv4A02
-5 1:0.00049339712 2:0.02239354 3:0.010373444 4:0.091970801 5:0.30208334 6:0.94227368 7:0.03125 8:0.82536143 # 1k5jB00 1vrbA01
5 1:0.0026528954 2:0.027533039 3:0.010027663 4:0.19270073 5:0.78125 6:0.70606208 7:0.020833334 8:0.77699447 # 1ebfA02 1nvmB02
-5 1:0.0058961613 2:0.030837005 3:0.012102352 4:0.12408759 5:0.35416666 6:0.89885831 7:0.11458334 8:0.76699984 # 1ad2A02 1ihuA01
5 1:0.0080080284 2:0.034140971 3:0.013831259 4:0.080291972 5:0.32291666 6:0.94291687 7:0.052083332 8:0.82330894 # 1sazA01 2nrhB01
5 1:0.00073291681 2:0.023127753 3:0.012793914 4:0.13430656 5:0.3125 6:0.92715871 7:0.125 8:0.79564518 # 1esmA00 1ofuX00
-5 1:0.00038401541 2:0.021659324 3:0.0072614108 4:0.081751823 5:0.45833334 6:0.91397333 7:0.09375 8:0.87729788 # 2p5zX04 3c8iA00
5 1:0.006248856 2:0.031204112 3:0.015905948 4:0.19854015 5:0.57291669 6:0.80736452 7:0.072916664 8:0.87488848 # 1b96A00 1ev7A01
5 1:4.399411e-05 2:0.017988253 3:0.0093361 4:0.23357664 5:0.83333331 6:0.75832129 7:0.072916664 8:0.85311443 # 1pjrA03 2fnaA01
-5 1:0.01650547 2:0.040014684 3:0.019363763 4:0.07737226 5:0.34375 6:0.90046632 7:0.052083332 8:0.76530433 # 1m2oA01 2jrrA01
5 1:0.00043792487 2:0.02239354 3:0.010027663 4:0.091970801 5:0.33333334 6:0.89548159 7:0.072916664 8:0.76726753 # 1pw5A02 3gygA01
-5 1:0.0033529263 2:0.028267253 3:0.01417704 4:0.18248175 5:0.85416669 6:0.77424026 7:0.052083332 8:0.86658931 # 1hw1A02 1jogA00
5 1:0.0011599376 2:0.024963289 3:0.011410789 4:0.1970803 5:0.60416669 6:0.93198264 7:0.11458334 8:0.91299301 # 1q2lA02 3cx5B02
-5 1:0.0044370536 2:0.029735683 3:0.012102352 4:0.071532845 5:0.28125 6:0.87506032 7:0.10416666 8:0.77431732 # 1ab8A00 1ft8C01
5 1:0.0014154712 2:0.025330396 3:0.010373444 4:0.20729928 5:0.875 6:0.90143108 7:0.072916664 8:0.92566484 # 1cztA00 1k42A00
-5 1:0.004732782 2:0.030469898 3:0.021784233 4:0.14598539 5:0.40625 6:0.93954015 7:0.041666668 8:0.86641085 # 1bu6O01 3c0bA02
-5 1:0.012099107 2:0.038913362 3:0.024204703 4:0.12992701 5:0.375 6:0.92538995 7:0.072916664 8:0.82553989 # 1adjB02 1efpB00
-5 1:0.012690437 2:0.038546257 3:0.024896266 4:0.15036497 5:0.375 6:0.9231388 7:0.0625 8:0.81831163 # 1an9A01 1nstA00
-5 1:0.0063542216 2:0.033039648 3:0.018326418 4:0.12846716 5:0.38541666 6:0.93503779 7:0.11458334 8:0.83776546 # 1a9xA01 1b3bA02
5 1:0.0034826277 2:0.027533039 3:0.019363763 4:0.15328467 5:0.79166669 6:0.77826017 7:0.052083332 8:0.75825453 # 1a0jA01 1arbA02
5 1:0.0016069969 2:0.025330396 3:0.0086445371 4:0.14306569 5:0.76041669 6:0.7168355 7:0.072916664 8:0.74513656 # 1ey2A02 1ft9A01
-5 1:0.0020593645 2:0.027165933 3:0.012102352 4:0.10948905 5:0.34375 6:0.92812347 7:0.0625 8:0.82134569 # 1cdzA00 1iirA01
5 1:0.002943543 2:0.027900146 3:0.010719226 4:0.17664233 5:0.3125 6:0.94146967 7:0.11458334 8:0.81081563 # 1cb5A01 3b79A00
-5 1:0.0016069969 2:0.025697503 3:0.0069156294 4:0.093430653 5:0.51041669 6:0.91493809 7:0.09375 8:0.84829557 # 1a9vA00 1c7sA04
-5 1:0.00038401541 2:0.02239354 3:0.012793914 4:0.3941606 5:0.70833331 6:0.70670527 7:0.03125 8:0.82669997 # 1hn0A02 1lf6A02
-5 1:0.00033158308 2:0.021659324 3:0.0069156294 4:0.10948905 5:0.52083331 6:0.86525166 7:0.041666668 8:0.87194359 # 1r89A02 1zswA02
5 1:0.0054205013 2:0.030469898 3:0.017634856 4:0.32554746 5:0.66666669 6:0.86091012 7:0.0625 8:0.85748708 # 1aq0A00 1avaA01
5 1:0.0013264477 2:0.024963289 3:0.012448133 4:0.24233577 5:0.77083331 6:0.89612478 7:0.10416666 8:0.91049439 # 1ikpA01 1za4A00
-5 1:0.006739575 2:0.032672539 3:0.020746889 4:0.33722627 5:0.76041669 6:0.90416467 7:0.10416666 8:0.92530787 # 1gqnA00 1lt7B00
-5 1:0.0058401478 2:0.032305434 3:0.019709544 4:0.3649635 5:0.75 6:0.91059655 7:0.0625 8:0.89139748 # 1ktbA01 1uhvA02
5 1:0.0017104631 2:0.02606461 3:0.010373444 4:0.075912409 5:0.35416666 6:0.84595597 7:0 8:0.72675353 # 1f2uA00 2zejA02
5 1:0.0028391178 2:0.026798826 3:0.005878285 4:0.061313868 5:0.36458334 6:0.88052744 7:0.041666668 8:0.74138856 # 1a0jA01 2hrvA01
5 1:0.00038401541 2:0.022026431 3:0.011410789 4:0.1839416 5:0.69791669 6:0.92506832 7:0.0625 8:0.92816347 # 1a6cA02 1fmd100
-2.5291012795087226550094783306122 1:0.0028352868 2:0.027165933 3:0.010373444 4:0.049635038 5:0.34375 6:0.92474675 7:0.020833334 8:0.82054257 # 1iq8A03 1tulA00
5 1:0.022829613 2:0.051395006 3:0.039419089 4:0.25401461 5:0.625 6:0.73870397 7:0.072916664 8:0.78056401 # 1e69A00 1m6nA01
5 1:0.0084565915 2:0.035242289 3:0.029045643 4:0.17664233 5:0.48958334 6:0.88712013 7:0.072916664 8:0.84106731 # 1b0uA00 1jqlB00
-5 1:0.0007977928 2:0.023861967 3:0.011410789 4:0.30218977 5:0.79166669 6:0.73066407 7:0.083333336 8:0.84561843 # 1pv4A02 2qe6A00
5 1:0.0071121752 2:0.033406753 3:0.017634856 4:0.12554744 5:0.32291666 6:0.92973149 7:0.020833334 8:0.78109944 # 1cp2A00 1jqlB00
5 1:0.0016069969 2:0.02606461 3:0.013831259 4:0.12846716 5:0.32291666 6:0.89821517 7:0.0625 8:0.75530964 # 1a1vA02 1a7jA00
5 1:0.006064395 2:0.030837005 3:0.012448133 4:0.22189781 5:0.83333331 6:0.69593179 7:0.072916664 8:0.89139748 # 1auyB00 1fmd100
-5 1:0.0014154712 2:0.025330396 3:0.0086445371 4:0.14890511 5:0.28125 6:0.92603314 7:0.10416666 8:0.77619135 # 1ga6A00 1gsaA01
-5 1:0.0080368062 2:0.033773862 3:0.018326418 4:0.12116788 5:0.28125 6:0.92072678 7:0.052083332 8:0.76833838 # 1d7aA00 1esmA00
5 1:0.0031239104 2:0.028267253 3:0.016597511 4:0.33138686 5:0.80208331 6:0.71458435 7:0.072916664 8:0.84499377 # 1pgjA02 1qmgA02
-5 1:0.0026528954 2:0.027533039 3:0.011065007 4:0.11970803 5:0.45833334 6:0.88808489 7:0.09375 8:0.80224878 # 2ph7A02 2r6fA01
5 1:0.011959021 2:0.038179148 3:0.023858922 4:0.14890511 5:0.4375 6:0.92410356 7:0.083333336 8:0.85132962 # 1c9kB00 2ph1A00
-5 1:0.013769617 2:0.04185022 3:0.028008299 4:0.12116788 5:0.32291666 6:0.87313074 7:0.03125 8:0.78743529 # 3bkxA00 3fdiA00
-5 1:0.0037500844 2:0.030102789 3:0.012448133 4:0.13138686 5:0.29166666 6:0.92635471 7:0.041666668 8:0.80751383 # 1cvlA00 1dnpA01
5 1:0.0007977928 2:0.023861967 3:0.014522822 4:0.14598539 5:0.69791669 6:0.92522913 7:0.09375 8:0.93824738 # 1tsjA00 1zswA02
5 1:0.00038401541 2:0.021292217 3:0.0096818814 4:0.22773723 5:0.76041669 6:0.72165942 7:0.083333336 8:0.75718367 # 1ckeA00 1w36D03
5 1:0 2:0.013215859 3:0.017634856 4:0.25401461 5:0.75 6:0.71185076 7:0.03125 8:0.74219167 # 1texA00 1w44A01
-5 1:0.0019358598 2:0.026431719 3:0.012102352 4:0.24817519 5:0.83333331 6:0.72053385 7:0.052083332 8:0.83018029 # 1gpuA02 3b89A02
-5 1:0.019958667 2:0.046622615 3:0.035961274 4:0.22043796 5:0.58333331 6:0.74706542 7:0.125 8:0.83776546 # 1j3qB00 2rdqA00
5 1:0.0010067631 2:0.024596183 3:0.012102352 4:0.1839416 5:0.3125 6:0.9216916 7:0.0625 8:0.80251652 # 1dnpA01 1ffyA01
5 1:0.0040109167 2:0.029368576 3:0.014522822 4:0.24379562 5:0.79166669 6:0.7242322 7:0.0625 8:0.80894166 # 1d5aA02 1u04A04
-5 1:0.0012413822 2:0.024596183 3:0.014522822 4:0.26715329 5:0.34375 6:0.89837593 7:0.052083332 8:0.79189718 # 1dabA00 1ea0B04
5 1:0.0010818181 2:0.024596183 3:0.011065007 4:0.20437956 5:0.80208331 6:0.75140697 7:0.083333336 8:0.84570765 # 1gkuB03 1jb1A00
5 1:0.00038401541 2:0.02239354 3:0.0082987556 4:0.13868614 5:0.8125 6:0.77407944 7:0.0625 8:0.88604319 # 1d9cA00 1ga3A00
-5 1:0.0014154712 2:0.025697503 3:0.012793914 4:0.18540145 5:0.44791666 6:0.89628559 7:0.020833334 8:0.81857932 # 1bf6A00 1o1zA00
5 1:0.013769617 2:0.04185022 3:0.026970955 4:0.12992701 5:0.30208334 6:0.94886637 7:0.083333336 8:0.84472603 # 1esmA00 1g5rA00
5 1:0.0057068928 2:0.031938326 3:0.015905948 4:0.25839415 5:0.52083331 6:0.9128477 7:0.09375 8:0.85472071 # 1v77A00 2qpxA00
5 1:0.00013513799 2:0.02092511 3:0.0082987556 4:0.11824817 5:0.84375 6:0.83437854 7:0.11458334 8:0.8545422 # 1ka8A00 1pp8O00
5 1:0.00049339712 2:0.022760646 3:0.0076071923 4:0.11678832 5:0.82291669 6:0.78067213 7:0.041666668 8:0.89353919 # 1fc3B00 1t0fA02
5 1:0.0020593645 2:0.026798826 3:0.012448133 4:0.19416058 5:0.84375 6:0.85158384 7:0.041666668 8:0.94395858 # 1sbqA00 2g40A00
-5 1:0.0018198448 2:0.025697503 3:0.0072614108 4:0.11094891 5:0.86458331 6:0.8158868 7:0.041666668 8:0.87203282 # 2hiyA02 2py5A03
-5 1:0.0047122599 2:0.030469898 3:0.016597511 4:0.16788322 5:0.54166669 6:0.87682909 7:0.03125 8:0.80305195 # 1dmrA01 2klbA00
-5 1:0.0068927491 2:0.032672539 3:0.017980637 4:0.11970803 5:0.27083334 6:0.92989224 7:0.0625 8:0.75870067 # 1eiwA00 1esmA00
5 1:0.0014154712 2:0.025697503 3:0.0186722 4:0.11678832 5:0.85416669 6:0.89146167 7:0.03125 8:0.86150277 # 1fshA00 1pp8O00
5 1:0.0020593645 2:0.026431719 3:0.010373444 4:0.12262774 5:0.85416669 6:0.92860591 7:0.041666668 8:0.9262895 # 1no5B00 2id1A01
-5 1:0.00086494564 2:0.024229076 3:0.0093361 4:0.15474452 5:0.58333331 6:0.76620036 7:0.0625 8:0.85775477 # 1exnA02 1kjnA00
-5 1:0.0017104631 2:0.025697503 3:0.010027663 4:0.11094891 5:0.84375 6:0.87264836 7:0.020833334 8:0.90344459 # 1svmA01 2ezkA00
5 1:0.00049339712 2:0.022760646 3:0.013831259 4:0.13284671 5:0.33333334 6:0.86058849 7:0.09375 8:0.7497769 # 1w36F03 2zejA02
-1.6226828369173924571100542380009 1:0.00043792487 2:0.022760646 3:0.011410789 4:0.067153282 5:0.20833333 6:0.5320791 7:0.041666668 8:0.70051759 # 1l6eA00 1wdzB00
5 1:0.0033304859 2:0.027900146 3:0.010027663 4:0.11678832 5:0.875 6:0.92265636 7:0.072916664 8:0.95868284 # 1a8pA01 1aipA02
-5 1:0.0098945461 2:0.037444934 3:0.02351314 4:0.22043796 5:0.32291666 6:0.80414855 7:0.041666668 8:0.72987688 # 1ac5A00 1f0kA02
5 1:0.0018198448 2:0.025697503 3:0.01175657 4:0.14744526 5:0.875 6:0.9001447 7:0.072916664 8:0.94877744 # 1bqsA02 1txkA02
-5 1:0.00049339712 2:0.023127753 3:0.0096818814 4:0.17372262 5:0.83333331 6:0.8755427 7:0.0625 8:0.9192397 # 1amuA02 1kjnA00
-5 1:0.017807847 2:0.043685757 3:0.029045643 4:0.22043796 5:0.80208331 6:0.90738058 7:0.083333336 8:0.91825807 # 1j8mF02 1xv5A01
5 1:0.0021913934 2:0.026431719 3:0.0079529742 4:0.12408759 5:0.35416666 6:0.77359706 7:0.041666668 8:0.71113688 # 1dkqA02 2h0qA01
5 1:0.0010067631 2:0.024596183 3:0.010719226 4:0.16058394 5:0.33333334 6:0.79048079 7:0.052083332 8:0.75156164 # 2avwD01 2aynA00
5 1:0.0035398374 2:0.029001469 3:0.01175657 4:0.14744526 5:0.34375 6:0.77729541 7:0.083333336 8:0.7319293 # 1f2uB00 3do6A01
5 1:0.00038401541 2:0.022026431 3:0.012793914 4:0.091970801 5:0.34375 6:0.86235732 7:0.083333336 8:0.78306264 # 1jbkA00 1ofuX00
-5 1:0.0021913934 2:0.027900146 3:0.013831259 4:0.10510949 5:0.34375 6:0.79594791 7:0.0625 8:0.80171335 # 2fbqA00 2wb0X01
-5 1:0.003047572 2:0.028267253 3:0.012102352 4:0.17664233 5:0.57291669 6:0.7898376 7:0.041666668 8:0.81509906 # 2rirA01 3gmiA02
5 1:0.00055052555 2:0.023127753 3:0.01175657 4:0.33430657 5:0.8125 6:0.90947098 7:0.041666668 8:0.84909868 # 1ktbA01 2qezA03
5 1:0.0020593645 2:0.026431719 3:0.014522822 4:0.16058394 5:0.40625 6:0.70911723 7:0.041666668 8:0.678922 # 1f2uA00 1w36F03
-5 1:0.014153633 2:0.040748898 3:0.02835408 4:0.26131386 5:0.70833331 6:0.94967037 7:0.11458334 8:0.9726932 # 1m3uA00 2p10A01
-5 1:0.0063906736 2:0.032672539 3:0.020055326 4:0.32262772 5:0.78125 6:0.88165301 7:0.0625 8:0.90924507 # 1ad1A00 1bf6A00
5 1:0.0039933114 2:0.029368576 3:0.016597511 4:0.13868614 5:0.4375 6:0.7510854 7:0.041666668 8:0.66018206 # 1a99A02 1j1nA01
-5 1:0.0010818181 2:0.024596183 3:0.012793914 4:0.17372262 5:0.57291669 6:0.94420326 7:0.072916664 8:0.92459399 # 1ofuA01 1ytlA00
-5 1:0.00093454093 2:0.024229076 3:0.01175657 4:0.17226277 5:0.71875 6:0.9329474 7:0.072916664 8:0.92575407 # 1bgwA02 1eucA02
5 1:0.0013264477 2:0.024963289 3:0.010719226 4:0.26861313 5:0.82291669 6:0.92136997 7:0.072916664 8:0.91415316 # 1jhnA01 1za4A00
5 1:0.004212148 2:0.029001469 3:0.013485477 4:0.11970803 5:0.58333331 6:0.9358418 7:0.041666668 8:0.91406387 # 1l7lA00 2o14A01
-5 1:0.0014154712 2:0.025330396 3:0.013485477 4:0.19562043 5:0.59375 6:0.82183629 7:0.052083332 8:0.81090486 # 1hqnA02 1jhnA01
-5 1:0.0007977928 2:0.024229076 3:0.0089903185 4:0.12408759 5:0.8125 6:0.91670686 7:0.03125 8:0.93735498 # 1yqeA02 2kyrA00
-5 1:0.00013513799 2:0.021292217 3:0.0093361 4:0.12262774 5:0.8125 6:0.92876667 7:0.09375 8:0.9154917 # 1acxA00 1ok8A04
5 1:0.014727931 2:0.034508076 3:0.020055326 4:0.072992697 5:0.5 6:0.88036662 7:0.10416666 8:0.83767623 # 2kyuA00 3l11A00
5 1:0.0012413822 2:0.024963289 3:0.01175657 4:0.14160584 5:0.375 6:0.78887284 7:0.052083332 8:0.69837588 # 1pv4A02 2zejA02
5 1:0.0072999392 2:0.034140971 3:0.020401107 4:0.14160584 5:0.35416666 6:0.78517449 7:0.0625 8:0.71399248 # 1aquB00 1f2uA00
-5 1:0.0064914157 2:0.031938326 3:0.022821577 4:0.14306569 5:0.3125 6:0.67969126 7:0.052083332 8:0.662413 # 1vkwA01 3qf4A01
-5 1:0.0029314314 2:0.027900146 3:0.011410789 4:0.18540145 5:0.51041669 6:0.7549445 7:0.041666668 8:0.80162412 # 1dvpA01 1xnfA00
-5 1:0.00067016826 2:0.023127753 3:0.0089903185 4:0.15474452 5:0.82291669 6:0.92362118 7:0.083333336 8:0.91620559 # 1c2pA03 1r89A03
5 1:0.0075526568 2:0.034140971 3:0.022821577 4:0.14014599 5:0.34375 6:0.81395721 7:0.041666668 8:0.69043368 # 1f2uB00 1m6nA01
-5 1:0.0024863854 2:0.028267253 3:0.017980637 4:0.19270073 5:0.6875 6:0.80575657 7:0.010416667 8:0.81063718 # 1cqzA01 1kwgA02
5 1:0.00043792487 2:0.022026431 3:0.010373444 4:0.19124088 5:0.85416669 6:0.83952403 7:0.072916664 8:0.93101907 # 1htwA00 1z5zB01
-5 1:0.0011599376 2:0.024963289 3:0.012102352 4:0.16788322 5:0.85416669 6:0.86396527 7:0.072916664 8:0.87649471 # 1amuA02 1jqlB00
5 1:0.00049339712 2:0.023127753 3:0.0069156294 4:0.072992697 5:0.33333334 6:0.86895001 7:0.11458334 8:0.78761375 # 1o7fA02 2ia1B02
-5 1:0.0030582927 2:0.027900146 3:0.012448133 4:0.1649635 5:0.6875 6:0.8285898 7:0.0625 8:0.84561843 # 1d09A02 1efdN02
5 1:0.0093061253 2:0.035242289 3:0.020746889 4:0.1970803 5:0.6875 6:0.87763304 7:0.083333336 8:0.89371765 # 2hv2A03 2q04A00
5 1:0.0016069969 2:0.025697503 3:0.0082987556 4:0.072992697 5:0.35416666 6:0.87602508 7:0.03125 8:0.74968767 # 1htyA03 2igtA02
5 1:0.0040073828 2:0.030102789 3:0.014868603 4:0.13284671 5:0.33333334 6:0.90721983 7:0.03125 8:0.80037481 # 1aquB00 1c9kB00
5 1:0.0016069969 2:0.025697503 3:0.0093361 4:0.14014599 5:0.32291666 6:0.90432543 7:0.083333336 8:0.79582369 # 1dpgA02 1h2hA02
-5 1:0.00018239123 2:0.021292217 3:0.010719226 4:0.15182482 5:0.58333331 6:0.80623895 7:0.10416666 8:0.82420135 # 1baa001 1furA01
5 1:0.0090932772 2:0.034508076 3:0.017980637 4:0.16204379 5:0.625 6:0.89676797 7:0.0625 8:0.87926114 # 153lA00 1am7A00
5 1:0.00049339712 2:0.02239354 3:0.014868603 4:0.13138686 5:0.66666669 6:0.94645441 7:0.0625 8:0.94565409 # 1jqlB00 1ofuX00
-5 1:0.0090932772 2:0.036343612 3:0.02351314 4:0.38102189 5:0.75 6:0.89821517 7:0.052083332 8:0.89077282 # 1dosA00 1eceA00
5 1:0.0018198448 2:0.025697503 3:0.012448133 4:0.074452557 5:0.33333334 6:0.94822317 7:0.09375 8:0.84392291 # 2h3gX02 2nrhB01
-5 1:4.399411e-05 2:0.017254038 3:0.012448133 4:0.046715327 5:0.36458334 6:0.91638529 7:0.0625 8:0.84160268 # 1atrA03 1bx4A02
-5 1:0.0019358598 2:0.026798826 3:0.015214385 4:0.096350364 5:0.35416666 6:0.94645441 7:0.10416666 8:0.83267891 # 1bg6A01 2d00A01
5 1:0.0069411988 2:0.032672539 3:0.021438451 4:0.31970802 5:0.78125 6:0.73388004 7:0.083333336 8:0.81081563 # 1do8A02 1lj8A01
-5 1:0.00013513799 2:0.020190896 3:0.0072614108 4:0.10802919 5:0.5 6:0.89210486 7:0.083333336 8:0.85677314 # 1afb100 1bcpB01
5 1:0.0019358598 2:0.026431719 3:0.015560166 4:0.13138686 5:0.30208334 6:0.89387363 7:0.072916664 8:0.84588611 # 1fcdA02 1w4xA01
5 1:0.0013264477 2:0.025697503 3:0.012448133 4:0.11824817 5:0.33333334 6:0.93552017 7:0.072916664 8:0.82473677 # 1bu6O01 1zbsA02
-5 1:0.00049339712 2:0.022760646 3:0.014522822 4:0.19124088 5:0.44791666 6:0.88599455 7:0.09375 8:0.78805995 # 1escA00 1g8mA04
5 1:0.00093454093 2:0.024596183 3:0.013831259 4:0.11824817 5:0.34375 6:0.89001447 7:0.0625 8:0.72782439 # 1ofuX00 1texA00
-5 1:0.0030734036 2:0.027900146 3:0.012448133 4:0.1970803 5:0.82291669 6:0.8501367 7:0.052083332 8:0.90174907 # 1jqkA02 1zl0B01
-5 1:0.0019358598 2:0.026798826 3:0.0093361 4:0.18540145 5:0.82291669 6:0.82440907 7:0.09375 8:0.89318222 # 1k92A01 2q07A01
-5 1:0.0036217631 2:0.028634362 3:0.01175657 4:0.11532847 5:0.67708331 6:0.85110146 7:0.052083332 8:0.85329288 # 1mwwB00 1nmnA00
-5 1:0.0030930087 2:0.027533039 3:0.013485477 4:0.099270076 5:0.27083334 6:0.94082648 7:0.03125 8:0.78663218 # 1efdN01 1q3kA00
5 1:0.00073291681 2:0.02349486 3:0.013831259 4:0.26423359 5:0.65625 6:0.83791608 7:0.0625 8:0.87015885 # 1nlfA00 1s1mA01
-5 1:0.0028352868 2:0.027165933 3:0.013139696 4:0.21021898 5:0.80208331 6:0.73371923 7:0.083333336 8:0.88532931 # 1vq8N00 3cqyA01
-5 1:0.0013264477 2:0.025330396 3:0.012448133 4:0.31386861 5:0.78125 6:0.71940827 7:0.0625 8:0.83348209 # 1dklB01 1eamA00
5 1:0.0042160815 2:0.028267253 3:0.0079529742 4:0.062773719 5:0.36458334 6:0.89499921 7:0.09375 8:0.74817061 # 1a0jA01 1eptA00
-5 1:0.025294127 2:0.052863438 3:0.042876903 4:0.23065694 5:0.46875 6:0.82585627 7:0.083333336 8:0.82536143 # 1f0jA00 2pgsA01
5 1:0.0010818181 2:0.024963289 3:0.0089903185 4:0.19270073 5:0.75 6:0.73966879 7:0.0625 8:0.74825984 # 1sw1A01 3thiA02
-5 1:0.0010067631 2:0.024596183 3:0.011410789 4:0.15766424 5:0.86458331 6:0.81315327 7:0.072916664 8:0.85034806 # 1kzqA01 1uurA02
5 1:4.399411e-05 2:0.017988253 3:0.0048409407 4:0.091970801 5:0.83333331 6:0.81878114 7:0.052083332 8:0.92316616 # 1y9bA00 2jo1A00
-5 1:0.002943543 2:0.028634362 3:0.011065007 4:0.07883212 5:0.82291669 6:0.84708154 7:0.0625 8:0.91058362 # 1j9iA00 2hvgA03
-5 1:0.0039346376 2:0.029368576 3:0.017289074 4:0.12408759 5:0.3125 6:0.81492203 7:0.072916664 8:0.77645904 # 1a9qA00 1a9xA01
-5 1:0.0010067631 2:0.024229076 3:0.010373444 4:0.16058394 5:0.625 6:0.75462294 7:0.0625 8:0.84008569 # 1j5rA02 1jt6A02
5 1:0.00049339712 2:0.022760646 3:0.0038035961 4:0.068613142 5:0.8125 6:0.95047438 7:0.052083332 8:0.96680349 # 1ef4A00 1hlvA02
-5 1:0.0093061253 2:0.038913362 3:0.029045643 4:0.34598541 5:0.42708334 6:0.88277858 7:0.041666668 8:0.77342492 # 1gjwA01 1kblA04
5 1:4.399411e-05 2:0.016152717 3:0.015905948 4:0.15474452 5:0.36458334 6:0.77681297 7:0.020833334 8:0.7299661 # 1jb1A00 1w36B03
-5 1:0.011004121 2:0.036343612 3:0.018326418 4:0.072992697 5:0.76041669 6:0.91670686 7:0.083333336 8:0.92334461 # 1bw6A00 1konA01
-5 1:0.0053127622 2:0.031204112 3:0.0186722 4:0.10802919 5:0.77083331 6:0.92538995 7:0.0625 8:0.96287704 # 1ayeA01 2qrrA00
5 1:0.0034933938 2:0.028634362 3:0.011065007 4:0.14160584 5:0.70833331 6:0.90368229 7:0.072916664 8:0.91611636 # 1atnA01 1woqA02
